svm_type epsilon_svr
kernel_type rbf
gamma 0.05
nr_class 2
total_sv 4861
rho -6.4268
probA 0.305413
SV
-100 1:-0.219602 2:0.957143 3:0.979389 4:0.988637 
100 1:-0.219602 2:0.902265 3:0.950642 4:0.971734 
-100 1:-0.219602 2:0.796794 3:0.890401 4:0.934692 
-100 1:-0.219602 2:0.605565 3:0.764705 4:0.85193 
100 1:-0.219602 2:0.304187 3:0.520454 4:0.66794 
100 1:-0.219602 2:-0.0755183 3:0.145544 4:0.336921 
-100 1:-0.219602 2:-0.514648 3:-0.364436 4:-0.202862 
-100 1:-0.288353 2:0.921596 3:0.963696 4:0.980129 
-100 1:-0.456622 2:0.837808 3:0.921067 4:0.955471 
-100 1:-0.474512 2:0.668709 3:0.820818 4:0.893781 
-100 1:0.0759662 2:0.0929894 3:0.334527 4:0.514849 
100 1:0.906518 2:-0.40494 3:-0.237543 4:-0.0975372 
-100 1:-0.454081 2:0.935831 3:0.969011 4:0.982568 
100 1:-0.540965 2:0.861611 3:0.929602 4:0.958753 
-100 1:-0.611905 2:0.723152 3:0.844714 4:0.903197 
-100 1:-0.739256 2:0.246899 3:0.447506 4:0.590027 
100 1:-0.905474 2:-0.316065 3:-0.172653 4:-0.0440086 
-100 1:-0.35182 2:0.950055 3:0.974881 4:0.984848 
-100 1:-0.401602 2:0.882815 3:0.937663 4:0.961713 
100 1:-0.546484 2:0.537474 3:0.698362 4:0.793696 
100 1:-0.621901 2:0.242546 3:0.438948 4:0.578391 
100 1:-0.708734 2:-0.0891223 3:0.100454 4:0.258372 
100 1:-0.847501 2:-0.446537 3:-0.309256 4:-0.171818 
-100 1:-0.568488 2:0.917501 3:0.962277 4:0.979242 
-100 1:-0.683804 2:0.798045 3:0.899954 4:0.942288 
-100 1:-0.78665 2:0.580742 3:0.759801 4:0.851184 
100 1:-0.869813 2:0.0743509 3:0.301302 4:0.462543 
-100 1:-0.91437 2:-0.200219 3:-0.00316294 4:0.150194 
-100 1:-0.939044 2:-0.486127 3:-0.352671 4:-0.240211 
100 1:-0.51062 2:0.933941 3:0.968857 4:0.982458 
-100 1:-0.704869 2:0.858944 3:0.92713 4:0.955997 
-100 1:-0.81853 2:0.736018 3:0.851533 4:0.906601 
-100 1:-0.907578 2:0.539438 3:0.71079 4:0.807798 
-100 1:-0.933118 2:0.280753 3:0.48924 4:0.632051 
-100 1:-0.925089 2:-0.0334111 3:0.178297 4:0.350019 
-100 1:-0.444544 2:0.934943 3:0.968223 4:0.981825 
100 1:-0.527731 2:0.872463 3:0.933862 4:0.960039 
-100 1:-0.661706 2:0.612158 3:0.761672 4:0.842525 
-100 1:-0.722249 2:0.405323 3:0.589502 4:0.705131 
-100 1:-0.736272 2:0.147575 3:0.345237 4:0.488819 
-100 1:-0.219602 2:0.728818 3:0.846937 4:0.903375 
-100 1:-0.219602 2:0.475948 3:0.668624 4:0.776162 
-100 1:-0.219602 2:0.10797 3:0.362059 4:0.534544 
-100 1:-0.219602 2:-0.320332 3:-0.0703195 4:0.150861 
100 1:-0.219602 2:0.686963 3:0.81161 4:0.877165 
100 1:-0.219602 2:0.434892 3:0.613852 4:0.72706 
-100 1:-0.219602 2:0.106092 3:0.309452 4:0.464246 
100 1:-0.219602 2:-0.247596 3:-0.0677279 4:0.0897678 
-100 1:-0.219602 2:-0.576181 3:-0.459451 4:-0.339253 
100 1:-0.219602 2:0.928218 3:0.964871 4:0.980222 
100 1:-0.219602 2:0.843463 3:0.918148 4:0.951978 
100 1:-0.219602 2:0.689549 3:0.821903 4:0.889084 
100 1:-0.219602 2:0.453825 3:0.647188 4:0.760012 
100 1:-0.219602 2:-0.113246 3:0.0979751 4:0.260133 
-100 1:-0.219602 2:0.923208 3:0.959891 4:0.97552 
-100 1:-0.219602 2:0.847697 3:0.916685 4:0.947729 
-100 1:-0.219602 2:0.706747 3:0.829162 4:0.889581 
-100 1:-0.219602 2:-0.270583 3:-0.0647769 4:0.124773 
-100 1:-0.219602 2:-0.577636 3:-0.443401 4:-0.295355 
100 1:-0.219602 2:0.95095 3:0.97568 4:0.985786 
-100 1:-0.219602 2:0.886265 3:0.939635 4:0.962259 
100 1:-0.219602 2:0.725806 3:0.843033 4:0.899263 
100 1:-0.219602 2:0.463399 3:0.656703 4:0.767786 
100 1:-0.219602 2:0.125448 3:0.368993 4:0.53967 
-100 1:-0.219602 2:-0.247326 3:-0.0187542 4:0.184137 
-100 1:-0.219602 2:-0.579773 3:-0.428271 4:-0.264397 
100 1:-0.421405 2:0.956589 3:0.979785 4:0.988766 
100 1:-0.758994 2:0.770865 3:0.872547 4:0.91915 
-100 1:-0.917398 2:0.314109 3:0.516061 4:0.646601 
100 1:-0.46982 2:0.928328 3:0.965012 4:0.980141 
-100 1:-0.573457 2:0.819432 3:0.906678 4:0.945168 
-100 1:-0.686326 2:0.587063 3:0.752229 4:0.842781 
100 1:-0.764784 2:0.3165 3:0.526847 4:0.669268 
100 1:-0.827638 2:0.0260902 3:0.234431 4:0.403889 
100 1:-0.895964 2:-0.282547 3:-0.114688 4:0.0427661 
100 1:-0.958648 2:-0.582833 3:-0.486008 4:-0.391561 
-100 1:-0.585411 2:0.947208 3:0.974438 4:0.98535 
100 1:-0.655778 2:0.886663 3:0.941056 4:0.964688 
100 1:-0.69525 2:0.732979 3:0.848688 4:0.905648 
100 1:-0.827165 2:0.432973 3:0.628022 4:0.747077 
100 1:-0.874431 2:0.0751137 3:0.302771 4:0.474969 
100 1:-0.963021 2:-0.29844 3:-0.0928287 4:0.100005 
100 1:-0.95589 2:-0.606607 3:-0.460902 4:-0.294419 
-100 1:-0.219602 2:0.820524 3:0.909657 4:0.949756 
100 1:-0.219602 2:0.299379 3:0.520463 4:0.677912 
100 1:-0.219602 2:0.0770132 3:0.305872 4:0.482066 
100 1:-0.219602 2:-0.13392 3:0.0835725 4:0.262016 
100 1:-0.219602 2:-0.585511 3:-0.447769 4:-0.322464 
-100 1:-0.219602 2:0.91601 3:0.957728 4:0.976039 
-100 1:-0.219602 2:0.819805 3:0.905165 4:0.944727 
100 1:-0.219602 2:0.639694 3:0.78985 4:0.871525 
100 1:-0.219602 2:0.353004 3:0.561572 4:0.702943 
100 1:-0.219602 2:-0.00319766 3:0.219805 4:0.405355 
100 1:-0.219602 2:-0.347209 3:-0.164701 4:0.0109014 
100 1:-0.219602 2:-0.600777 3:-0.481112 4:-0.361309 
-100 1:-0.219602 2:0.917311 3:0.958248 4:0.975605 
-100 1:-0.219602 2:0.827511 3:0.906899 4:0.943506 
100 1:-0.219602 2:0.685473 3:0.813898 4:0.881548 
-100 1:-0.219602 2:0.476285 3:0.6533 4:0.763513 
-100 1:-0.219602 2:0.203847 3:0.413746 4:0.567398 
-100 1:-0.219602 2:-0.105165 3:0.101117 4:0.280272 
-100 1:-0.219602 2:-0.441841 3:-0.278175 4:-0.106871 
-100 1:-0.635964 2:0.952841 3:0.977161 4:0.986839 
100 1:-0.623328 2:0.891392 3:0.944092 4:0.966069 
100 1:-0.605674 2:0.735817 3:0.853641 4:0.907112 
100 1:-0.856844 2:0.425436 3:0.64157 4:0.762677 
100 1:-0.763994 2:0.0232103 3:0.291967 4:0.487637 
100 1:-0.979736 2:-0.379634 3:-0.147039 4:0.0720118 
-100 1:-0.95808 2:-0.68338 3:-0.540213 4:-0.37935 
-100 1:-0.219602 2:0.912204 3:0.957813 4:0.976046 
-100 1:-0.219602 2:0.572725 3:0.7438 4:0.841656 
-100 1:-0.219602 2:-0.219594 3:-0.0169366 4:0.169002 
-100 1:-0.219602 2:-0.453533 3:-0.295658 4:-0.131066 
-100 1:-0.368252 2:0.957706 3:0.978078 4:0.986495 
-100 1:-0.426064 2:0.910595 3:0.952512 4:0.970126 
100 1:-0.483854 2:0.751653 3:0.856253 4:0.90693 
100 1:-0.570183 2:0.464024 3:0.64468 4:0.752664 
100 1:-0.663262 2:0.0974017 3:0.320795 4:0.482112 
100 1:-0.686556 2:-0.297095 3:-0.0916446 4:0.0951594 
100 1:-0.740512 2:-0.647949 3:-0.519132 4:-0.370382 
100 1:-0.414152 2:0.940002 3:0.970326 4:0.982753 
-100 1:-0.468342 2:0.856304 3:0.924652 4:0.954755 
100 1:-0.564341 2:0.689667 3:0.820848 4:0.886889 
100 1:-0.644216 2:0.422684 3:0.621657 4:0.743179 
100 1:-0.70895 2:0.0682743 3:0.299643 4:0.475273 
100 1:-0.805352 2:-0.296121 3:-0.0958304 4:0.0870635 
100 1:-0.907368 2:-0.603314 3:-0.466134 4:-0.316644 
-100 1:-0.219602 2:0.816439 3:0.904345 4:0.945531 
-100 1:-0.219602 2:0.637307 3:0.792483 4:0.8765 
100 1:-0.219602 2:0.361452 3:0.581946 4:0.727711 
100 1:-0.219602 2:0.0588517 3:0.29445 4:0.478694 
100 1:-0.219602 2:-0.228331 3:-0.0232371 4:0.151928 
100 1:-0.219602 2:-0.513483 3:-0.377468 4:-0.265127 
-100 1:-0.219602 2:0.886531 3:0.937195 4:0.960376 
100 1:-0.219602 2:0.753643 3:0.850941 4:0.901409 
-100 1:-0.219602 2:0.504537 3:0.664565 4:0.762282 
-100 1:-0.219602 2:-0.556902 3:-0.43854 4:-0.317026 
100 1:-0.219602 2:0.955934 3:0.979133 4:0.988347 
-100 1:-0.219602 2:0.736642 3:0.85485 4:0.912407 
-100 1:-0.219602 2:0.140703 3:0.367813 4:0.538225 
-100 1:-0.219602 2:0.938713 3:0.969315 4:0.981932 
-100 1:-0.219602 2:0.856155 3:0.924322 4:0.954811 
100 1:-0.219602 2:0.688166 3:0.81725 4:0.884696 
-100 1:-0.219602 2:0.423922 3:0.613564 4:0.733585 
100 1:-0.219602 2:-0.257929 3:-0.0734272 4:0.0963922 
-100 1:-0.219602 2:-0.579115 3:-0.457785 4:-0.330787 
-100 1:-0.219602 2:0.954019 3:0.977507 4:0.986578 
100 1:-0.219602 2:0.880663 3:0.938301 4:0.961898 
-100 1:-0.219602 2:0.728 3:0.845783 4:0.900503 
-100 1:-0.219602 2:0.480233 3:0.666855 4:0.769725 
-100 1:-0.219602 2:0.141826 3:0.372169 4:0.531962 
-100 1:-0.219602 2:-0.231484 3:-0.0232648 4:0.153524 
-100 1:-0.219602 2:-0.578295 3:-0.45093 4:-0.321324 
-100 1:-0.498621 2:0.943205 3:0.971361 4:0.982834 
-100 1:-0.564283 2:0.870352 3:0.933461 4:0.959888 
-100 1:-0.648186 2:0.711252 3:0.842003 4:0.902691 
-100 1:-0.819402 2:0.00791556 3:0.286295 4:0.490298 
-100 1:-0.881657 2:-0.421119 3:-0.204711 4:0.0115811 
100 1:-0.962648 2:-0.723181 3:-0.613758 4:-0.491375 
-100 1:-0.578921 2:0.882829 3:0.938934 4:0.964201 
-100 1:-0.682721 2:0.741322 3:0.851397 4:0.907683 
-100 1:-0.791975 2:0.524471 3:0.692983 4:0.792953 
100 1:-0.851812 2:0.246086 3:0.458958 4:0.608984 
100 1:-0.901292 2:-0.0798272 3:0.145518 4:0.337289 
-100 1:-0.965834 2:-0.703997 3:-0.582372 4:-0.437486 
100 1:-0.456617 2:0.922797 3:0.959147 4:0.975181 
100 1:-0.509374 2:0.846541 3:0.915324 4:0.94747 
100 1:-0.574045 2:0.702355 3:0.822403 4:0.885441 
-100 1:-0.662139 2:0.453135 3:0.632095 4:0.747591 
100 1:-0.759372 2:0.121295 3:0.325062 4:0.487747 
100 1:-0.843858 2:-0.240744 3:-0.0631367 4:0.110776 
100 1:-0.219602 2:0.908212 3:0.955025 4:0.973763 
100 1:-0.219602 2:0.78109 3:0.884183 4:0.930806 
100 1:-0.219602 2:0.55741 3:0.733212 4:0.82981 
100 1:-0.219602 2:0.246007 3:0.473694 4:0.627225 
100 1:-0.219602 2:-0.116086 3:0.11337 4:0.304703 
100 1:-0.219602 2:-0.512168 3:-0.352217 4:-0.170654 
100 1:-0.219602 2:-0.78071 3:-0.718266 4:-0.623234 
100 1:-0.477853 2:0.95042 3:0.975869 4:0.985501 
-100 1:-0.603494 2:0.891447 3:0.943954 4:0.965241 
100 1:-0.696204 2:0.767985 3:0.868649 4:0.91562 
16.08366652958759 1:-0.794663 2:0.56266 3:0.719468 4:0.808522 
-100 1:-0.865319 2:0.305908 3:0.498721 4:0.629822 
100 1:-0.8944 2:0.0173008 3:0.212387 4:0.370655 
100 1:-0.930609 2:-0.2878 3:-0.130339 4:0.0127383 
-100 1:-0.554397 2:0.934266 3:0.967873 4:0.980953 
100 1:-0.632046 2:0.850557 3:0.921731 4:0.951817 
100 1:-0.687126 2:0.697296 3:0.824815 4:0.885943 
100 1:-0.775708 2:0.460451 3:0.645797 4:0.752747 
-100 1:-0.839567 2:0.15877 3:0.367663 4:0.514288 
100 1:-0.924444 2:-0.165835 3:0.0192978 4:0.171131 
100 1:-0.965175 2:-0.474543 3:-0.346981 4:-0.23307 
-100 1:-0.48626 2:0.914106 3:0.957702 4:0.975805 
-100 1:-0.568967 2:0.806399 3:0.898945 4:0.940256 
100 1:-0.663333 2:0.596488 3:0.765408 4:0.854636 
100 1:-0.761188 2:0.257903 3:0.495865 4:0.651527 
100 1:-0.853368 2:-0.15705 3:0.0832431 4:0.287515 
100 1:-0.914382 2:-0.554084 3:-0.3919 4:-0.216888 
-100 1:-0.957027 2:-0.812337 3:-0.739658 4:-0.655157 
-100 1:-0.219602 2:0.870209 3:0.930579 4:0.957715 
-100 1:-0.219602 2:0.722602 3:0.834235 4:0.89201 
100 1:-0.219602 2:0.0957155 3:0.297825 4:0.45319 
100 1:-0.219602 2:-0.269682 3:-0.095524 4:0.0609728 
-100 1:-0.219602 2:-0.599414 3:-0.484328 4:-0.36377 
-100 1:-0.520348 2:0.920924 3:0.959803 4:0.977181 
-100 1:-0.590823 2:0.842696 3:0.914161 4:0.948669 
100 1:-0.641591 2:0.707018 3:0.824656 4:0.889045 
100 1:-0.739826 2:0.502835 3:0.668776 4:0.775024 
100 1:-0.784823 2:0.245413 3:0.435168 4:0.578749 
100 1:-0.872724 2:-0.0528103 3:0.123444 4:0.275838 
100 1:-0.66253 2:0.921598 3:0.960902 4:0.97791 
100 1:-0.741627 2:0.852428 3:0.921625 4:0.954097 
100 1:-0.741974 2:0.717564 3:0.832023 4:0.894755 
-100 1:-0.848622 2:0.51966 3:0.676597 4:0.779787 
-100 1:-0.977152 2:0.289758 3:0.464968 4:0.600286 
100 1:-1 2:-0.190386 3:-0.0582253 4:0.0528964 
-100 1:-0.219602 2:0.853492 3:0.920026 4:0.950287 
-100 1:-0.219602 2:0.72838 3:0.835599 4:0.892034 
-100 1:-0.219602 2:0.533702 3:0.681165 4:0.772703 
-100 1:-0.219602 2:0.279663 3:0.445182 4:0.566813 
-100 1:-0.219602 2:-0.0151133 3:0.13766 4:0.264925 
-100 1:-0.219602 2:-0.338472 3:-0.22455 4:-0.12192 
-100 1:-0.389066 2:0.929541 3:0.963812 4:0.978356 
-100 1:-0.448428 2:0.840018 3:0.913112 4:0.946703 
100 1:-0.515532 2:0.644315 3:0.786491 4:0.863958 
100 1:-0.570555 2:0.331712 3:0.532968 4:0.670732 
-100 1:-0.646963 2:-0.370275 3:-0.200772 4:-0.0431072 
-100 1:-0.764459 2:-0.643034 3:-0.529874 4:-0.414375 
100 1:-0.219602 2:0.857414 3:0.924163 4:0.954248 
-100 1:-0.219602 2:0.478534 3:0.660944 4:0.770946 
-100 1:-0.219602 2:0.14854 3:0.364996 4:0.529628 
-100 1:-0.219602 2:-0.200402 3:-0.00837384 4:0.171468 
2.972176413080931 1:-0.219602 2:-0.493921 3:-0.35706 4:-0.203086 
100 1:-0.582113 2:0.928385 3:0.965088 4:0.979216 
100 1:-0.716661 2:0.845074 3:0.922219 4:0.952981 
-100 1:-0.795391 2:0.690652 3:0.82637 4:0.892409 
100 1:-0.847873 2:0.452075 3:0.650957 4:0.770688 
100 1:-0.907773 2:0.136244 3:0.370863 4:0.545737 
100 1:-0.925918 2:-0.215736 3:-0.00291875 4:0.185745 
100 1:-0.96548 2:-0.603712 3:-0.479875 4:-0.349736 
100 1:-0.551905 2:0.903448 3:0.951602 4:0.972445 
-100 1:-0.619387 2:0.810031 3:0.896144 4:0.937391 
100 1:-0.677528 2:0.667709 3:0.800537 4:0.870848 
100 1:-0.72968 2:0.460662 3:0.645942 4:0.754418 
-100 1:-0.830759 2:0.187057 3:0.405501 4:0.555643 
-100 1:-0.853725 2:-0.116225 3:0.0856988 4:0.250551 
-100 1:-0.934436 2:-0.425318 3:-0.283077 4:-0.154499 
-100 1:-0.370897 2:0.945628 3:0.974314 4:0.984788 
-100 1:-0.773045 2:0.211001 3:0.427342 4:0.573706 
-100 1:-0.796845 2:-0.0837339 3:0.124396 4:0.287724 
-100 1:-0.8336 2:-0.384061 3:-0.219816 4:-0.0677482 
100 1:-0.772726 2:0.922416 3:0.961414 4:0.977761 
100 1:-0.976974 2:0.725883 3:0.84383 4:0.903002 
-100 1:-0.9881 2:0.538308 3:0.711636 4:0.8105 
-100 1:-0.988157 2:0.278019 3:0.495526 4:0.641124 
-100 1:-0.99385 2:-0.0402329 3:0.187111 4:0.367782 
-100 1:-0.99567 2:-0.386077 3:-0.195941 4:-0.0137835 
100 1:-0.496105 2:0.915913 3:0.960008 4:0.978146 
-100 1:-0.572547 2:0.809725 3:0.899337 4:0.942144 
-100 1:-0.713693 2:0.380586 3:0.567608 4:0.696804 
100 1:-0.915636 2:-0.443547 3:-0.328879 4:-0.21471 
-100 1:-0.586777 2:0.90451 3:0.95219 4:0.972742 
100 1:-0.801294 2:0.572696 3:0.739195 4:0.834059 
100 1:-0.879886 2:0.26383 3:0.482151 4:0.633418 
100 1:-0.900225 2:-0.117788 3:0.0983943 4:0.284433 
-100 1:-0.957225 2:-0.719918 3:-0.6284 4:-0.526317 
-100 1:-0.219602 2:0.914807 3:0.958829 4:0.977293 
-100 1:-0.219602 2:0.820441 3:0.905656 4:0.944018 
-100 1:-0.219602 2:0.674819 3:0.810929 4:0.881536 
-100 1:-0.219602 2:0.471934 3:0.655873 4:0.764417 
-100 1:-0.219602 2:0.209554 3:0.424343 4:0.571869 
-100 1:-0.219602 2:-0.0741288 3:0.141328 4:0.31227 
-100 1:-0.219602 2:-0.391978 3:-0.218568 4:-0.0540877 
-100 1:-0.426508 2:0.921132 3:0.960957 4:0.977491 
-100 1:-0.485253 2:0.835362 3:0.910606 4:0.946257 
-100 1:-0.546306 2:0.691362 3:0.809047 4:0.876393 
100 1:-0.681038 2:0.225284 3:0.382329 4:0.498662 
100 1:-0.768591 2:-0.0674213 3:0.0684512 4:0.176574 
100 1:-0.847989 2:-0.345226 3:-0.24638 4:-0.166417 
100 1:-0.219602 2:0.784017 3:0.884374 4:0.929088 
100 1:-0.219602 2:0.612594 3:0.76454 4:0.845023 
100 1:-0.219602 2:0.386957 3:0.576268 4:0.696241 
100 1:-0.219602 2:0.123084 3:0.31402 4:0.458592 
100 1:-0.219602 2:-0.459093 3:-0.35582 4:-0.27162 
100 1:-0.219602 2:0.931116 3:0.964309 4:0.977978 
100 1:-0.219602 2:0.857768 3:0.920523 4:0.948477 
100 1:-0.219602 2:0.706466 3:0.820669 4:0.880405 
100 1:-0.219602 2:0.449186 3:0.61986 4:0.730591 
100 1:-0.219602 2:0.132008 3:0.324665 4:0.475582 
100 1:-0.219602 2:-0.504489 3:-0.396015 4:-0.290548 
-100 1:-0.50153 2:0.959234 3:0.980645 4:0.9891 
100 1:-0.628292 2:0.743747 3:0.861676 4:0.917557 
100 1:-0.728575 2:0.463997 3:0.662118 4:0.7815 
100 1:-0.902018 2:-0.254403 3:-0.052572 4:0.135049 
100 1:-0.969337 2:-0.607711 3:-0.482158 4:-0.34549 
-100 1:-0.570499 2:0.896109 3:0.947578 4:0.969902 
100 1:-0.717061 2:0.567796 3:0.732731 4:0.828246 
100 1:-0.667501 2:0.265734 3:0.479693 4:0.63056 
100 1:-0.887762 2:-0.114548 3:0.093939 4:0.275976 
100 1:-0.943576 2:-0.495092 3:-0.347654 4:-0.189662 
-100 1:-0.982252 2:-0.75917 3:-0.686157 4:-0.597426 
100 1:-0.522544 2:0.894968 3:0.947644 4:0.969585 
-100 1:-0.598688 2:0.772461 3:0.87336 4:0.921655 
100 1:-0.622865 2:0.574677 3:0.7274 4:0.816186 
100 1:-0.685048 2:0.317309 3:0.498705 4:0.623748 
100 1:-0.773345 2:-0.282222 3:-0.147423 4:-0.0318392 
-4.45518521230646 1:-0.861306 2:-0.55858 3:-0.482584 4:-0.417834 
100 1:-0.219602 2:0.923654 3:0.962782 4:0.97905 
-100 1:-0.219602 2:0.848623 3:0.921489 4:0.954 
-100 1:-0.219602 2:0.726511 3:0.846403 4:0.906443 
-100 1:-0.219602 2:0.534874 3:0.708765 4:0.808412 
-100 1:-0.219602 2:0.265173 3:0.481432 4:0.627595 
-100 1:-0.219602 2:-0.0557717 3:0.165341 4:0.345146 
-100 1:-0.219602 2:-0.405868 3:-0.231742 4:-0.0611336 
-100 1:-0.656023 2:0.908485 3:0.954042 4:0.9738 
100 1:-0.806038 2:0.647123 3:0.793778 4:0.87124 
-100 1:-0.930772 2:-0.274831 3:-0.0551913 4:0.147007 
-100 1:-0.967271 2:-0.574697 3:-0.422905 4:-0.267003 
100 1:-0.531819 2:0.925081 3:0.961554 4:0.977137 
-100 1:-0.588191 2:0.841671 3:0.914479 4:0.947429 
-100 1:-0.641652 2:0.687001 3:0.81625 4:0.881726 
-100 1:-0.716714 2:0.436121 3:0.63256 4:0.746824 
-100 1:-0.780626 2:0.0794645 3:0.321304 4:0.49527 
100 1:-0.837794 2:-0.300351 3:-0.0850423 4:0.110304 
100 1:-0.90058 2:-0.592601 3:-0.44567 4:-0.288104 
100 1:-0.219602 2:0.948048 3:0.973902 4:0.984057 
-100 1:-0.219602 2:0.770028 3:0.868447 4:0.915345 
-100 1:-0.219602 2:0.569058 3:0.723461 4:0.811523 
-100 1:-0.219602 2:0.295679 3:0.490403 4:0.625492 
-100 1:-0.219602 2:-0.0231047 3:0.185879 4:0.358034 
-100 1:-0.219602 2:-0.365126 3:-0.184383 4:-0.00485439 
-100 1:-0.219602 2:0.930452 3:0.966035 4:0.979881 
-100 1:-0.219602 2:0.843481 3:0.917787 4:0.94969 
-100 1:-0.219602 2:0.691481 3:0.820593 4:0.885843 
-100 1:-0.219602 2:0.468729 3:0.647965 4:0.757848 
-100 1:-0.219602 2:0.20426 3:0.408263 4:0.553077 
-100 1:-0.219602 2:-0.0760525 3:0.120083 4:0.281638 
-100 1:-0.219602 2:-0.355754 3:-0.197634 4:-0.0521801 
100 1:-0.447709 2:0.97594 3:0.988118 4:0.992796 
100 1:-0.502536 2:0.946685 3:0.972625 4:0.983058 
100 1:-0.616954 2:0.851153 3:0.917959 4:0.9472 
100 1:-0.723743 2:0.674122 3:0.803538 4:0.868823 
-100 1:-0.81478 2:0.416291 3:0.604365 4:0.717047 
-100 1:-0.901162 2:0.100972 3:0.315543 4:0.470274 
-100 1:-0.219602 2:0.942174 3:0.96803 4:0.979072 
-100 1:-0.219602 2:0.87934 3:0.93195 4:0.955452 
-100 1:-0.219602 2:0.702605 3:0.824205 4:0.884472 
100 1:-0.219602 2:0.386598 3:0.587026 4:0.710822 
100 1:-0.219602 2:-0.0505437 3:0.170499 4:0.351171 
-100 1:-0.219602 2:-0.78538 3:-0.724145 4:-0.659601 
-100 1:-0.219602 2:0.954982 3:0.97724 4:0.986208 
-100 1:-0.219602 2:0.907689 3:0.950708 4:0.969285 
100 1:-0.219602 2:0.771833 3:0.868308 4:0.917455 
-100 1:-0.219602 2:0.53805 3:0.697376 4:0.798491 
100 1:-0.219602 2:0.24341 3:0.430984 4:0.575041 
-100 1:-0.219602 2:-0.077598 3:0.0942017 4:0.244326 
-100 1:-0.219602 2:-0.399002 3:-0.277929 4:-0.16727 
100 1:-0.219602 2:0.801492 3:0.890963 4:0.935189 
100 1:-0.219602 2:0.624791 3:0.762823 4:0.845503 
100 1:-0.219602 2:0.385253 3:0.552148 4:0.670367 
100 1:-0.219602 2:0.101486 3:0.261045 4:0.383321 
100 1:-0.219602 2:-0.178351 3:-0.0500472 4:0.0492638 
100 1:-0.219602 2:-0.437194 3:-0.354915 4:-0.298198 
-100 1:-0.219602 2:0.915608 3:0.954694 4:0.971578 
100 1:-0.219602 2:0.820872 3:0.897851 4:0.935026 
100 1:-0.219602 2:0.656728 3:0.783497 4:0.85432 
100 1:-0.219602 2:0.400266 3:0.570029 4:0.684537 
100 1:-0.219602 2:0.0722096 3:0.255583 4:0.407587 
100 1:-0.219602 2:-0.286175 3:-0.124967 4:0.0433947 
100 1:-0.219602 2:-0.613827 3:-0.499717 4:-0.342172 
100 1:-0.439109 2:0.93225 3:0.967161 4:0.981742 
-100 1:-0.504739 2:0.847308 3:0.919554 4:0.953157 
-100 1:-0.586545 2:0.691835 3:0.817333 4:0.886299 
-100 1:-0.681027 2:0.45809 3:0.630851 4:0.746878 
-100 1:-0.782022 2:0.162944 3:0.347366 4:0.497397 
-100 1:-0.874628 2:-0.143497 3:0.0172545 4:0.163883 
-100 1:-0.934633 2:-0.434364 3:-0.322682 4:-0.215229 
-100 1:-0.485767 2:0.922614 3:0.961895 4:0.977902 
-100 1:-0.711934 2:0.476001 3:0.665104 4:0.776364 
100 1:-0.804623 2:0.160548 3:0.388366 4:0.551998 
100 1:-0.846991 2:-0.202576 3:0.0134442 4:0.203513 
100 1:-0.733469 2:0.689507 3:0.827474 4:0.894141 
100 1:-0.778918 2:0.426096 3:0.633035 4:0.754779 
100 1:-0.833222 2:0.0822258 3:0.320724 4:0.496169 
100 1:-0.886344 2:-0.278115 3:-0.0699394 4:0.117074 
100 1:-0.219602 2:0.969079 3:0.985204 4:0.991677 
-100 1:-0.219602 2:0.934015 3:0.96647 4:0.980271 
-100 1:-0.219602 2:0.825979 3:0.904617 4:0.941526 
-100 1:-0.219602 2:0.638096 3:0.776685 4:0.855065 
-100 1:-0.219602 2:0.394741 3:0.580493 4:0.70496 
-100 1:-0.219602 2:0.097105 3:0.305711 4:0.470651 
-100 1:-0.219602 2:-0.238308 3:-0.0461379 4:0.139842 
-100 1:-0.560868 2:0.918358 3:0.960133 4:0.977798 
100 1:-0.688988 2:0.822639 3:0.906335 4:0.945455 
100 1:-0.800069 2:0.658308 3:0.798182 4:0.874497 
-100 1:-0.875554 2:0.431827 3:0.621475 4:0.743179 
100 1:-0.903828 2:0.172695 3:0.383229 4:0.537702 
-100 1:-0.928516 2:-0.10438 3:0.0914188 4:0.25776 
100 1:-0.956229 2:-0.392798 3:-0.23761 4:-0.0879917 
100 1:-0.57266 2:0.808228 3:0.890159 4:0.931739 
100 1:-0.64616 2:0.667131 3:0.788127 4:0.855972 
100 1:-0.710856 2:0.476883 3:0.631295 4:0.726422 
100 1:-0.774799 2:0.244424 3:0.415144 4:0.532583 
100 1:-0.82574 2:-0.0281304 3:0.134831 4:0.257697 
100 1:-0.91563 2:-0.350165 3:-0.228496 4:-0.134584 
100 1:-0.219602 2:0.875991 3:0.931712 4:0.956952 
100 1:-0.219602 2:0.738324 3:0.840856 4:0.893727 
100 1:-0.219602 2:0.480453 3:0.64242 4:0.743774 
100 1:-0.219602 2:0.127672 3:0.319554 4:0.465474 
-100 1:-0.219602 2:-0.242724 3:-0.0741413 4:0.0754178 
-100 1:-0.219602 2:-0.577988 3:-0.472162 4:-0.367341 
-100 1:-0.219602 2:0.920838 3:0.960557 4:0.979113 
-100 1:-0.219602 2:0.831101 3:0.913221 4:0.95141 
-100 1:-0.219602 2:0.635227 3:0.803267 4:0.887208 
100 1:-0.219602 2:0.30143 3:0.583485 4:0.751787 
-100 1:-0.219602 2:-0.0843451 3:0.255928 4:0.511026 
-100 1:-0.219602 2:-0.613143 3:-0.392909 4:-0.178341 
100 1:-0.219602 2:0.947635 3:0.97442 4:0.985056 
100 1:-0.219602 2:0.875398 3:0.936013 4:0.961981 
-100 1:-0.219602 2:0.728897 3:0.846122 4:0.904903 
-100 1:-0.219602 2:0.483124 3:0.665945 4:0.775183 
-100 1:-0.219602 2:0.148125 3:0.371305 4:0.534364 
-100 1:-0.219602 2:-0.218594 3:-0.012737 4:0.16821 
-100 1:-0.219602 2:-0.581877 3:-0.448071 4:-0.306484 
-100 1:-0.219602 2:0.914267 3:0.956583 4:0.975113 
-100 1:-0.219602 2:0.827823 3:0.906699 4:0.944286 
-100 1:-0.219602 2:0.452416 3:0.63934 4:0.756932 
-100 1:-0.219602 2:0.160359 3:0.383315 4:0.544913 
-100 1:-0.219602 2:-0.160502 3:0.0642148 4:0.248329 
-100 1:-0.219602 2:-0.458849 3:-0.281608 4:-0.114075 
100 1:-0.519266 2:0.923483 3:0.96139 4:0.977062 
100 1:-0.674892 2:0.592568 3:0.75896 4:0.844535 
100 1:-0.782292 2:0.243243 3:0.492048 4:0.648474 
100 1:-0.899846 2:-0.234623 3:0.0303048 4:0.253297 
100 1:-0.935992 2:-0.726925 3:-0.577998 4:-0.38883 
-100 1:-0.980167 2:-0.998729 3:-0.979914 4:-0.930657 
100 1:-0.219602 2:0.959748 3:0.980522 4:0.988698 
100 1:-0.219602 2:0.763435 3:0.870481 4:0.919513 
100 1:-0.219602 2:-0.280457 3:-0.0562072 4:0.139603 
100 1:-0.219602 2:-0.620378 3:-0.46354 4:-0.290721 
-100 1:-0.50464 2:0.958878 3:0.980958 4:0.988976 
100 1:-0.636495 2:0.892403 3:0.947421 4:0.968781 
-100 1:-0.73627 2:0.772543 3:0.88081 4:0.927848 
-100 1:-0.818873 2:0.564151 3:0.740736 4:0.834259 
-100 1:-0.872208 2:0.273967 3:0.499553 4:0.65139 
-100 1:-0.913561 2:-0.0416048 3:0.184227 4:0.368284 
-100 1:-0.955687 2:-0.375784 3:-0.199532 4:-0.0363001 
-100 1:-0.219602 2:0.942629 3:0.972151 4:0.983353 
100 1:-0.219602 2:0.872929 3:0.93458 4:0.960237 
-100 1:-0.219602 2:0.747716 3:0.856479 4:0.908974 
-100 1:-0.219602 2:0.556227 3:0.716533 4:0.807666 
-100 1:-0.219602 2:0.29578 3:0.49401 4:0.629673 
-100 1:-0.219602 2:-0.00130918 3:0.196167 4:0.35755 
-100 1:-0.219602 2:-0.298875 3:-0.134908 4:0.0187999 
-100 1:-0.219602 2:0.938228 3:0.969283 4:0.98222 
-100 1:-0.219602 2:0.875253 3:0.935903 4:0.961528 
-100 1:-0.219602 2:0.743695 3:0.855431 4:0.909081 
-100 1:-0.219602 2:0.508633 3:0.683416 4:0.786222 
-100 1:-0.219602 2:0.192611 3:0.398109 4:0.549849 
-100 1:-0.219602 2:-0.156747 3:0.0252413 4:0.187689 
-100 1:-0.219602 2:-0.51414 3:-0.408097 4:-0.307359 
-100 1:-0.582935 2:0.934508 3:0.968509 4:0.981689 
100 1:-0.770503 2:0.836162 3:0.917026 4:0.950618 
100 1:-0.888215 2:0.63484 3:0.792741 4:0.871267 
100 1:-0.935673 2:0.341897 3:0.558366 4:0.695208 
100 1:-0.957667 2:0.0395668 3:0.266638 4:0.437832 
100 1:-0.970531 2:-0.254605 3:-0.0584971 4:0.109475 
-100 1:-0.984741 2:-0.526605 3:-0.39012 4:-0.264606 
-100 1:-0.219602 2:0.92534 3:0.963088 4:0.978928 
-100 1:-0.219602 2:0.842628 3:0.921168 4:0.954044 
-100 1:-0.219602 2:0.658139 3:0.815195 4:0.889344 
-100 1:-0.219602 2:0.328988 3:0.581766 4:0.732074 
-100 1:-0.219602 2:-0.106989 3:0.182448 4:0.416487 
-100 1:-0.219602 2:-0.484265 3:-0.266889 4:-0.0398474 
100 1:-0.219602 2:-0.73035 3:-0.605098 4:-0.456586 
100 1:-0.626815 2:0.90615 3:0.952086 4:0.97224 
100 1:-0.747088 2:0.808507 3:0.898632 4:0.939698 
100 1:-0.83198 2:0.63435 3:0.791907 4:0.872185 
100 1:-0.879723 2:0.347085 3:0.58454 4:0.729945 
100 1:-0.910832 2:-0.0188683 3:0.251554 4:0.463981 
-100 1:-0.94523 2:-0.633899 3:-0.486961 4:-0.32721 
-100 1:-0.671836 2:0.768612 3:0.875388 4:0.923672 
-100 1:-0.747766 2:0.511847 3:0.705536 4:0.81011 
-100 1:-0.848881 2:0.140857 3:0.403962 4:0.583921 
-100 1:-0.915566 2:-0.293023 3:-0.0501279 4:0.173899 
-100 1:-0.219602 2:0.956921 3:0.978472 4:0.987058 
-100 1:-0.219602 2:0.769735 3:0.864611 4:0.90969 
-100 1:-0.219602 2:0.569403 3:0.719247 4:0.801023 
-100 1:-0.219602 2:0.322801 3:0.507185 4:0.624471 
-100 1:-0.219602 2:0.0444958 3:0.232555 4:0.368243 
-100 1:-0.219602 2:-0.274523 3:-0.117538 4:0.00553412 
-100 1:-0.219602 2:0.955606 3:0.978115 4:0.986992 
-100 1:-0.219602 2:0.905147 3:0.951821 4:0.971088 
-100 1:-0.219602 2:0.800881 3:0.890831 4:0.932536 
-100 1:-0.219602 2:0.613541 3:0.762165 4:0.846445 
-100 1:-0.219602 2:0.348805 3:0.542558 4:0.672406 
-100 1:-0.219602 2:-0.337274 3:-0.153987 4:0.0254365 
100 1:-0.500349 2:0.939663 3:0.970186 4:0.982086 
100 1:-0.607027 2:0.851245 3:0.92297 4:0.953454 
100 1:-0.739104 2:0.695278 3:0.827439 4:0.891956 
100 1:-0.835273 2:0.439948 3:0.641501 4:0.760387 
100 1:-0.924711 2:0.0812936 3:0.319337 4:0.496844 
100 1:-0.956642 2:-0.296389 3:-0.0817319 4:0.117094 
100 1:-0.986128 2:-0.627007 3:-0.484068 4:-0.322873 
100 1:-0.219602 2:0.937786 3:0.970306 4:0.982268 
100 1:-0.219602 2:0.854915 3:0.924988 4:0.953261 
100 1:-0.219602 2:0.722701 3:0.839985 4:0.895386 
-100 1:-0.219602 2:0.525559 3:0.690924 4:0.784112 
-100 1:-0.219602 2:0.25601 3:0.44521 4:0.575211 
-100 1:-0.571713 2:0.924905 3:0.964676 4:0.98018 
100 1:-0.864626 2:0.270555 3:0.506881 4:0.663687 
100 1:-0.893166 2:-0.109124 3:0.127059 4:0.324903 
100 1:-0.953941 2:-0.447698 3:-0.266836 4:-0.0859427 
20.82593963737749 1:-0.986263 2:-0.694522 3:-0.584667 4:-0.462041 
-100 1:-0.573776 2:0.925705 3:0.963229 4:0.978222 
-100 1:-0.632242 2:0.842808 3:0.916335 4:0.949251 
-100 1:-0.695798 2:0.70928 3:0.833221 4:0.895313 
100 1:-0.757258 2:0.483082 3:0.668274 4:0.777695 
100 1:-0.829957 2:0.166684 3:0.390903 4:0.551489 
100 1:-0.868741 2:-0.200501 3:0.0166256 4:0.203208 
-100 1:-0.945591 2:-0.566611 3:-0.408187 4:-0.244199 
100 1:-0.475014 2:0.936599 3:0.968421 4:0.981642 
100 1:-0.549046 2:0.852367 3:0.920636 4:0.951668 
100 1:-0.637973 2:0.674232 3:0.804031 4:0.87286 
100 1:-0.727368 2:0.408409 3:0.593997 4:0.713278 
100 1:-0.820126 2:0.0882825 3:0.290698 4:0.448149 
100 1:-0.879815 2:-0.23399 3:-0.0550001 4:0.106033 
100 1:-0.89766 2:-0.504955 3:-0.377353 4:-0.247138 
-100 1:-0.386793 2:0.829424 3:0.905646 4:0.942856 
-100 1:-0.440068 2:0.657383 3:0.781734 4:0.854939 
-100 1:-0.5943 2:0.458429 3:0.613661 4:0.725923 
-100 1:-0.621792 2:0.227478 3:0.387424 4:0.518135 
-100 1:-0.582361 2:-0.0766637 3:0.0931834 4:0.240435 
-100 1:-0.561815 2:0.960639 3:0.980813 4:0.989102 
-100 1:-0.654145 2:0.918066 3:0.959584 4:0.977067 
-100 1:-0.717839 2:0.824143 3:0.907929 4:0.946622 
-100 1:-0.888594 2:0.207626 3:0.418973 4:0.570565 
-100 1:-0.919072 2:-0.108533 3:0.0855491 4:0.251335 
-100 1:-0.219602 2:0.922746 3:0.96392 4:0.979147 
100 1:-0.219602 2:0.680768 3:0.811111 4:0.873788 
-100 1:-0.219602 2:0.188458 3:0.390207 4:0.526558 
-100 1:-0.219602 2:-0.425142 3:-0.289244 4:-0.17043 
100 1:-0.219602 2:0.923047 3:0.964841 4:0.980132 
100 1:-0.219602 2:0.693156 3:0.831604 4:0.896446 
-100 1:-0.219602 2:0.464727 3:0.661798 4:0.774537 
-100 1:-0.219602 2:0.185947 3:0.412486 4:0.570497 
-100 1:-0.219602 2:-0.0888146 3:0.122922 4:0.292999 
-100 1:-0.219602 2:-0.352925 3:-0.189025 4:-0.0422374 
100 1:-0.219602 2:0.898007 3:0.945912 4:0.96816 
-100 1:-0.219602 2:0.788299 3:0.879087 4:0.9248 
100 1:-0.219602 2:0.616043 3:0.763567 4:0.844526 
100 1:-0.219602 2:0.346571 3:0.556449 4:0.687892 
-100 1:-0.219602 2:-0.00250075 3:0.232065 4:0.411624 
100 1:-0.219602 2:-0.399897 3:-0.211173 4:-0.0314883 
100 1:-0.219602 2:-0.778008 3:-0.698321 4:-0.600371 
-100 1:-0.219602 2:0.944091 3:0.973922 4:0.985134 
100 1:-0.219602 2:0.884715 3:0.941422 4:0.964924 
-100 1:-0.219602 2:0.545154 3:0.703582 4:0.798184 
-100 1:-0.219602 2:0.280894 3:0.468196 4:0.602218 
-100 1:-0.219602 2:-0.0235356 3:0.158845 4:0.312317 
-100 1:-0.219602 2:-0.34991 3:-0.203483 4:-0.0626831 
-100 1:-0.618453 2:0.804904 3:0.889101 4:0.93274 
100 1:-0.676183 2:0.45603 3:0.611553 4:0.718404 
100 1:-0.701038 2:0.2109 3:0.377035 4:0.506063 
100 1:-0.797554 2:-0.0646205 3:0.0909834 4:0.223418 
100 1:-0.858204 2:-0.3527 3:-0.233843 4:-0.131059 
-100 1:-0.55978 2:0.916808 3:0.957824 4:0.97571 
100 1:-0.662156 2:0.821889 3:0.902596 4:0.941311 
100 1:-0.733804 2:0.658104 3:0.792946 4:0.866852 
100 1:-0.774942 2:0.412987 3:0.594347 4:0.71064 
100 1:-0.780487 2:0.111529 3:0.311251 4:0.46027 
100 1:-0.834492 2:-0.58809 3:-0.479905 4:-0.377649 
-100 1:-0.261608 2:0.978701 3:0.990242 4:0.994872 
-100 1:-0.289044 2:0.950482 3:0.97521 4:0.985582 
-100 1:-0.377117 2:0.858439 3:0.920765 4:0.949675 
-100 1:-0.477191 2:0.703883 3:0.815315 4:0.876546 
-100 1:-0.547035 2:0.52364 3:0.677666 4:0.772313 
-100 1:-0.627667 2:0.262579 3:0.449361 4:0.584119 
-100 1:-0.749495 2:-0.0937259 3:0.0913152 4:0.248005 
-100 1:-0.501636 2:0.925833 3:0.962307 4:0.978473 
-100 1:-0.575194 2:0.841849 3:0.915971 4:0.950438 
100 1:-0.651979 2:0.675525 3:0.811429 4:0.882252 
-100 1:-0.708176 2:0.411012 3:0.617492 4:0.741069 
-100 1:-0.759655 2:0.089362 3:0.336691 4:0.513477 
-100 1:-0.837218 2:-0.243986 3:-0.0167154 4:0.185727 
-100 1:-0.910656 2:-0.541183 3:-0.381932 4:-0.210176 
100 1:-0.219602 2:0.944509 3:0.972391 4:0.983772 
100 1:-0.219602 2:0.876143 3:0.935788 4:0.961818 
-100 1:-0.219602 2:0.221441 3:0.43587 4:0.589732 
-100 1:-0.219602 2:-0.0951066 3:0.122405 4:0.303327 
-100 1:-0.219602 2:-0.426393 3:-0.245465 4:-0.0607949 
-100 1:-0.576477 2:0.912937 3:0.958564 4:0.976489 
-100 1:-0.677221 2:0.792511 3:0.8897 4:0.933676 
100 1:-0.763721 2:0.583011 3:0.74453 4:0.832619 
100 1:-0.826233 2:0.297211 3:0.50446 4:0.644639 
100 1:-0.87798 2:-0.0137503 3:0.198505 4:0.366094 
100 1:-0.908421 2:-0.330557 3:-0.156638 4:0.001502 
100 1:-0.958329 2:-0.607739 3:-0.496475 4:-0.383302 
100 1:-0.739597 2:0.930981 3:0.96767 4:0.981425 
100 1:-0.919445 2:0.836788 3:0.917464 4:0.951527 
-100 1:-0.9561 2:0.672985 3:0.813368 4:0.885965 
-100 1:-0.968554 2:0.195706 3:0.405771 4:0.558254 
-100 1:-0.945085 2:-0.0669926 3:0.128902 4:0.284552 
100 1:-0.996921 2:-0.350139 3:-0.199399 4:-0.0774302 
100 1:-0.387393 2:0.957181 3:0.978659 4:0.987394 
100 1:-0.429626 2:0.912048 3:0.95301 4:0.970603 
-100 1:-0.586729 2:0.776559 3:0.868421 4:0.91552 
-100 1:-0.860031 2:0.556498 3:0.699901 4:0.790139 
-100 1:-0.92434 2:0.294496 3:0.46195 4:0.586718 
100 1:-0.975033 2:0.0108329 3:0.169566 4:0.306297 
100 1:-0.98863 2:-0.272936 3:-0.14817 4:-0.0308793 
-100 1:-0.219602 2:0.945641 3:0.972743 4:0.983336 
-100 1:-0.219602 2:0.883369 3:0.939492 4:0.962602 
-100 1:-0.219602 2:0.757121 3:0.864097 4:0.912796 
100 1:-0.219602 2:-0.0792095 3:0.116271 4:0.256135 
100 1:-0.219602 2:-0.411496 3:-0.271308 4:-0.162088 
100 1:-0.709911 2:0.888527 3:0.945864 4:0.970406 
-100 1:-0.820415 2:0.778804 3:0.881329 4:0.930399 
-100 1:-0.878284 2:0.616118 3:0.768564 4:0.854074 
-100 1:-0.929777 2:0.122739 3:0.319786 4:0.467494 
-100 1:-0.936728 2:-0.194 3:-0.0130941 4:0.140475 
-100 1:-0.929884 2:-0.505227 3:-0.3836 4:-0.272782 
-100 1:-0.219602 2:0.937583 3:0.970306 4:0.98297 
100 1:-0.219602 2:0.861073 3:0.92919 4:0.958027 
100 1:-0.219602 2:0.718038 3:0.844505 4:0.905129 
100 1:-0.219602 2:0.466231 3:0.668368 4:0.786997 
100 1:-0.219602 2:0.106178 3:0.357272 4:0.542513 
100 1:-0.219602 2:-0.323716 3:-0.0929899 4:0.123625 
100 1:-0.219602 2:-0.742094 3:-0.604808 4:-0.444609 
-100 1:-0.219602 2:0.946672 3:0.972759 4:0.98354 
-100 1:-0.219602 2:0.883482 3:0.935368 4:0.958894 
100 1:-0.219602 2:0.755267 3:0.851165 4:0.900858 
100 1:-0.219602 2:0.501107 3:0.658764 4:0.757191 
100 1:-0.219602 2:-0.232794 3:-0.0623557 4:0.0885155 
100 1:-0.219602 2:-0.579555 3:-0.467465 4:-0.349931 
100 1:-0.537474 2:0.920932 3:0.96084 4:0.97725 
-100 1:-0.699131 2:0.700086 3:0.821636 4:0.883475 
-100 1:-0.77571 2:0.499698 3:0.66269 4:0.760221 
-100 1:-0.84643 2:0.257232 3:0.438227 4:0.565032 
-100 1:-0.907755 2:-0.00536315 3:0.165638 4:0.297219 
-100 1:-0.942337 2:-0.253277 3:-0.116008 4:-0.00645018 
-100 1:-0.626653 2:0.921275 3:0.958681 4:0.974677 
-100 1:-0.623798 2:0.838136 3:0.910053 4:0.942702 
100 1:-0.765575 2:0.415108 3:0.609708 4:0.730834 
100 1:-0.718886 2:0.0420445 3:0.258903 4:0.428547 
100 1:-0.944323 2:-0.320403 3:-0.142777 4:0.0197501 
-100 1:-0.512461 2:0.964152 3:0.982826 4:0.990128 
-100 1:-0.53975 2:0.91922 3:0.961291 4:0.977637 
100 1:-0.537641 2:0.786538 3:0.890891 4:0.935413 
-100 1:-0.737423 2:0.508268 3:0.724394 4:0.833401 
-100 1:-0.783822 2:0.10904 3:0.413214 4:0.618113 
100 1:-0.999841 2:-0.573701 3:-0.382775 4:-0.189475 
100 1:-0.375735 2:0.931689 3:0.965765 4:0.979983 
-100 1:-0.502101 2:0.657858 3:0.793893 4:0.867795 
-100 1:-0.565144 2:0.396036 3:0.582377 4:0.703745 
100 1:-0.575949 2:0.0829139 3:0.283626 4:0.435135 
-100 1:-0.615271 2:-0.233702 3:-0.0575042 4:0.0975494 
100 1:-0.661524 2:-0.52557 3:-0.396342 4:-0.270926 
-100 1:-0.219602 2:0.913101 3:0.954016 4:0.973259 
-100 1:-0.219602 2:0.818985 3:0.899102 4:0.9382 
-100 1:-0.219602 2:0.652278 3:0.793126 4:0.869011 
-100 1:-0.219602 2:0.380742 3:0.591191 4:0.721213 
-100 1:-0.219602 2:0.0112484 3:0.262761 4:0.455354 
-100 1:-0.219602 2:-0.381313 3:-0.161109 4:0.0499776 
-100 1:-0.219602 2:-0.677165 3:-0.542664 4:-0.38701 
-100 1:-0.447302 2:0.941969 3:0.972467 4:0.984551 
100 1:-0.520852 2:0.870924 3:0.934428 4:0.962317 
100 1:-0.595966 2:0.736611 3:0.84999 4:0.909115 
100 1:-0.676667 2:0.528344 3:0.687924 4:0.789489 
100 1:-0.73723 2:0.272375 3:0.449156 4:0.581292 
100 1:-0.797134 2:0.000878285 3:0.163171 4:0.29736 
100 1:-0.856473 2:-0.273969 3:-0.150199 4:-0.0449052 
-100 1:-0.219602 2:0.946593 3:0.973644 4:0.984751 
-100 1:-0.219602 2:0.875198 3:0.933765 4:0.959893 
-100 1:-0.219602 2:0.724172 3:0.838593 4:0.896556 
-100 1:-0.219602 2:0.447927 3:0.631821 4:0.74555 
100 1:-0.219602 2:0.0765801 3:0.290454 4:0.45471 
100 1:-0.219602 2:-0.637617 3:-0.525667 4:-0.404391 
100 1:-0.605416 2:0.903226 3:0.951906 4:0.973853 
100 1:-0.674054 2:0.801846 3:0.892617 4:0.937045 
100 1:-0.75578 2:0.650845 3:0.79208 4:0.87144 
100 1:-0.806418 2:0.460695 3:0.648223 4:0.766719 
-100 1:-0.922731 2:-0.0531951 3:0.166362 4:0.351559 
-100 1:-0.219602 2:0.722334 3:0.840241 4:0.898232 
-100 1:-0.219602 2:0.250654 3:0.453602 4:0.591944 
-100 1:-0.219602 2:-0.0617977 3:0.136096 4:0.295474 
-100 1:-0.477926 2:0.948846 3:0.975102 4:0.984965 
100 1:-0.743359 2:0.873591 3:0.934884 4:0.958899 
-100 1:-0.84016 2:0.734026 3:0.851669 4:0.905444 
-100 1:-0.919896 2:0.188029 3:0.422788 4:0.585744 
-100 1:-0.948374 2:-0.145794 3:0.0823792 4:0.275757 
-100 1:-0.899908 2:-0.481497 3:-0.305757 4:-0.120356 
100 1:-0.451172 2:0.917608 3:0.95963 4:0.977262 
100 1:-0.521948 2:0.813891 3:0.903034 4:0.943743 
-100 1:-0.607774 2:0.609936 3:0.769373 4:0.855974 
100 1:-0.694171 2:0.304585 3:0.522488 4:0.669775 
100 1:-0.859125 2:-0.422633 3:-0.262676 4:-0.101063 
100 1:-0.926988 2:-0.683349 3:-0.592889 4:-0.490208 
-100 1:-0.219602 2:0.940219 3:0.970909 4:0.983214 
100 1:-0.219602 2:0.84 3:0.921553 4:0.954977 
-100 1:-0.219602 2:-0.00703178 3:0.230514 4:0.424607 
-100 1:-0.219602 2:-0.298128 3:-0.0980027 4:0.0922358 
100 1:-0.219602 2:-0.560523 3:-0.426879 4:-0.291569 
100 1:-0.546281 2:0.92806 3:0.964576 4:0.979328 
100 1:-0.641703 2:0.843206 3:0.917105 4:0.949566 
100 1:-0.712111 2:0.695841 3:0.824624 4:0.888606 
100 1:-0.775788 2:0.457303 3:0.648366 4:0.75818 
100 1:-0.831966 2:0.123623 3:0.352229 4:0.514527 
100 1:-0.876304 2:-0.249494 3:-0.0440139 4:0.139135 
100 1:-0.926613 2:-0.571803 3:-0.441173 4:-0.297265 
-100 1:-0.219602 2:0.944619 3:0.972089 4:0.983189 
-100 1:-0.219602 2:0.878867 3:0.932949 4:0.957079 
-100 1:-0.219602 2:0.750039 3:0.84767 4:0.89801 
-100 1:-0.219602 2:0.503047 3:0.657341 4:0.752515 
-100 1:-0.219602 2:0.154549 3:0.339904 4:0.478365 
-100 1:-0.219602 2:-0.530244 3:-0.417471 4:-0.308847 
-100 1:-0.550414 2:0.929025 3:0.964632 4:0.979211 
-100 1:-0.612874 2:0.852468 3:0.924412 4:0.955074 
-100 1:-0.654075 2:0.70658 3:0.841077 4:0.903957 
-100 1:-0.702981 2:0.44012 3:0.663581 4:0.78859 
-100 1:-0.742626 2:0.0445441 3:0.331166 4:0.540766 
-100 1:-0.868601 2:-0.406688 3:-0.16465 4:0.0764752 
-100 1:-0.958755 2:-0.760511 3:-0.639923 4:-0.486419 
-100 1:-0.580779 2:0.913453 3:0.957951 4:0.976477 
100 1:-0.753051 2:0.667058 3:0.807538 4:0.880766 
-100 1:-0.862329 2:0.166247 3:0.381916 4:0.54168 
-100 1:-0.895121 2:-0.118276 3:0.0782879 4:0.247778 
100 1:-0.478396 2:0.922698 3:0.959967 4:0.976429 
100 1:-0.532066 2:0.842513 3:0.914011 4:0.947273 
100 1:-0.598181 2:0.684668 3:0.811984 4:0.880659 
100 1:-0.665412 2:0.432566 3:0.618215 4:0.738777 
100 1:-0.745808 2:0.118659 3:0.329443 4:0.495955 
100 1:-0.812062 2:-0.19938 3:-0.00739478 4:0.174978 
100 1:-0.868215 2:-0.519265 3:-0.38477 4:-0.230561 
-100 1:-0.479054 2:0.949776 3:0.975729 4:0.986515 
-100 1:-0.5591 2:0.89563 3:0.946159 4:0.96842 
-100 1:-0.634544 2:0.795833 3:0.885533 4:0.928879 
-100 1:-0.673602 2:0.632569 3:0.771444 4:0.848032 
-100 1:-0.713575 2:0.401585 3:0.583446 4:0.700772 
-100 1:-0.790924 2:0.11839 3:0.318061 4:0.466675 
-100 1:-0.867549 2:-0.218453 3:-0.0347163 4:0.127923 
-100 1:-0.599908 2:0.925787 3:0.963473 4:0.979693 
-100 1:-0.707005 2:0.858727 3:0.926831 4:0.957262 
-100 1:-0.808957 2:0.72375 3:0.845011 4:0.905314 
-100 1:-0.892414 2:0.496304 3:0.687014 4:0.797911 
-100 1:-0.93388 2:0.201048 3:0.439946 4:0.60835 
-100 1:-0.953612 2:-0.09253 3:0.140862 4:0.329015 
-100 1:-0.973054 2:-0.396065 3:-0.205676 4:-0.0252148 
-100 1:-0.440032 2:0.944223 3:0.971091 4:0.982312 
100 1:-0.505055 2:0.874637 3:0.930567 4:0.95598 
-100 1:-0.611693 2:0.736657 3:0.840759 4:0.893842 
100 1:-0.697781 2:0.48354 3:0.648658 4:0.751292 
100 1:-0.840755 2:0.143398 3:0.33746 4:0.480411 
100 1:-0.806425 2:-0.226893 3:-0.0552144 4:0.0934491 
-100 1:-0.87027 2:-0.57312 3:-0.460232 4:-0.352777 
-100 1:-0.484352 2:0.965686 3:0.983817 4:0.990815 
-100 1:-0.55606 2:0.921772 3:0.961757 4:0.977846 
-100 1:-0.651995 2:0.792929 3:0.889762 4:0.93379 
100 1:-0.734969 2:0.558993 3:0.730609 4:0.826455 
100 1:-0.788873 2:0.250777 3:0.47157 4:0.628409 
-100 1:-0.859539 2:-0.107244 3:0.108399 4:0.298698 
-100 1:-0.905504 2:-0.48718 3:-0.333018 4:-0.163155 
100 1:-0.704543 2:0.791922 3:0.88132 4:0.925782 
100 1:-0.755493 2:0.635836 3:0.771094 4:0.846545 
100 1:-0.787305 2:0.416511 3:0.593854 4:0.704424 
100 1:-0.821097 2:0.127921 3:0.33074 4:0.478845 
100 1:-0.85787 2:-0.189557 3:0.000140524 4:0.16506 
-100 1:-0.341501 2:0.916557 3:0.954274 4:0.970937 
100 1:-0.433937 2:0.797851 3:0.874342 4:0.913542 
-100 1:-0.538401 2:0.636997 3:0.744498 4:0.806019 
-100 1:-0.580589 2:0.437275 3:0.560223 4:0.633978 
-100 1:-0.682953 2:0.178316 3:0.301983 4:0.374528 
-100 1:-0.605677 2:-0.0752764 3:0.0334009 4:0.0897897 
100 1:-0.594064 2:0.947529 3:0.974646 4:0.985757 
100 1:-0.667305 2:0.888718 3:0.943802 4:0.966737 
100 1:-0.725667 2:0.772052 3:0.877512 4:0.925288 
-100 1:-0.708825 2:0.563089 3:0.740528 4:0.833353 
100 1:-0.838284 2:0.248421 3:0.489498 4:0.648136 
-100 1:-0.88369 2:-0.0902721 3:0.152134 4:0.349673 
-100 1:-0.915273 2:-0.41263 3:-0.222772 4:-0.041755 
-100 1:-0.66522 2:0.901324 3:0.95122 4:0.973093 
-100 1:-0.773683 2:0.783188 3:0.881163 4:0.92912 
-100 1:-0.853978 2:0.601454 3:0.758138 4:0.845274 
-100 1:-0.906578 2:0.352907 3:0.557606 4:0.695834 
-100 1:-0.927955 2:0.0656538 3:0.283672 4:0.458723 
-100 1:-0.957745 2:-0.243224 3:-0.0596674 4:0.109015 
100 1:-0.973211 2:-0.517807 3:-0.398171 4:-0.283553 
-100 1:-0.73392 2:0.913075 3:0.958511 4:0.977459 
100 1:-0.829759 2:0.821958 3:0.908173 4:0.947373 
100 1:-0.895336 2:0.678009 3:0.815808 4:0.889098 
100 1:-0.91614 2:0.476674 3:0.661741 4:0.777551 
-100 1:-0.95147 2:0.223347 3:0.433263 4:0.587766 
100 1:-0.97239 2:-0.062677 3:0.137336 4:0.305232 
100 1:-0.959941 2:-0.393893 3:-0.247492 4:-0.112382 
-100 1:-0.219602 2:0.914339 3:0.956578 4:0.97436 
-100 1:-0.219602 2:0.841625 3:0.91546 4:0.947982 
-100 1:-0.219602 2:0.727859 3:0.84646 4:0.903833 
-100 1:-0.219602 2:0.278566 3:0.496022 4:0.641243 
-100 1:-0.219602 2:-0.0255142 3:0.196798 4:0.372404 
-100 1:-0.219602 2:-0.371609 3:-0.191198 4:-0.015584 
-100 1:-0.664612 2:0.920629 3:0.958228 4:0.974511 
-100 1:-0.763214 2:0.85757 3:0.923541 4:0.952604 
-100 1:-0.813157 2:0.739295 3:0.855935 4:0.910121 
-100 1:-0.865395 2:0.514659 3:0.706791 4:0.810773 
-100 1:-0.952165 2:-0.222334 3:0.0376512 4:0.260745 
-100 1:-0.962539 2:-0.603037 3:-0.422988 4:-0.22579 
-100 1:-0.614452 2:0.920715 3:0.961252 4:0.977418 
100 1:-0.857398 2:0.636843 3:0.782713 4:0.859075 
100 1:-0.903621 2:0.392501 3:0.586618 4:0.707467 
-100 1:-0.785305 2:-0.439137 3:-0.286544 4:-0.156869 
100 1:-0.219602 2:0.896369 3:0.948833 4:0.970053 
100 1:-0.219602 2:0.755313 3:0.870771 4:0.922727 
100 1:-0.219602 2:0.482399 3:0.684641 4:0.797305 
100 1:-0.219602 2:0.0806759 3:0.332804 4:0.514937 
100 1:-0.219602 2:-0.357574 3:-0.143779 4:0.0510472 
100 1:-0.219602 2:-0.915278 3:-0.892052 4:-0.870599 
100 1:-0.553037 2:0.905251 3:0.955627 4:0.975824 
100 1:-0.664195 2:0.773948 3:0.888307 4:0.937533 
100 1:-0.766848 2:0.497577 3:0.703944 4:0.820394 
100 1:-0.814336 2:0.183674 3:0.446435 4:0.627743 
100 1:-0.844715 2:-0.0937391 3:0.172596 4:0.388683 
100 1:-0.879276 2:-0.350297 3:-0.122293 4:0.0860085 
100 1:-0.926028 2:-0.588784 3:-0.433214 4:-0.280208 
-100 1:-0.724326 2:0.814111 3:0.903092 4:0.942707 
-100 1:-0.765376 2:0.44511 3:0.633007 4:0.746485 
-100 1:-0.822776 2:0.1734 3:0.378 4:0.526353 
-100 1:-0.873445 2:-0.125973 3:0.0552328 4:0.207908 
-100 1:-0.945701 2:-0.43906 3:-0.31247 4:-0.191945 
-100 1:-0.40499 2:0.942431 3:0.971034 4:0.982924 
-100 1:-0.410155 2:0.86698 3:0.9276 4:0.955496 
100 1:-0.51852 2:0.715644 3:0.828305 4:0.887534 
100 1:-0.551727 2:0.442442 3:0.618653 4:0.731536 
100 1:-0.800373 2:0.0785939 3:0.284556 4:0.444439 
100 1:-0.921799 2:-0.303389 3:-0.126651 4:0.0381785 
-100 1:-0.906902 2:-0.643082 3:-0.536801 4:-0.418984 
100 1:-0.219602 2:0.821221 3:0.901698 4:0.939408 
100 1:-0.219602 2:0.688665 3:0.813078 4:0.87785 
100 1:-0.219602 2:0.490029 3:0.65433 4:0.753341 
100 1:-0.219602 2:0.223462 3:0.403386 4:0.533438 
100 1:-0.219602 2:-0.0939106 3:0.0572646 4:0.179741 
100 1:-0.219602 2:-0.419309 3:-0.32963 4:-0.271596 
100 1:-0.69726 2:0.926206 3:0.962556 4:0.977647 
-100 1:-0.935366 2:0.323298 3:0.539054 4:0.679206 
-100 1:-0.972088 2:0.0118684 3:0.241878 4:0.421016 
-100 1:-0.993916 2:-0.349341 3:-0.15846 4:0.0241063 
100 1:-0.579444 2:0.92733 3:0.963943 4:0.979664 
100 1:-0.683164 2:0.848959 3:0.919215 4:0.951734 
100 1:-0.76372 2:0.719333 3:0.834507 4:0.894833 
100 1:-0.840861 2:0.529388 3:0.685667 4:0.782528 
-100 1:-0.899089 2:0.293258 3:0.468898 4:0.597068 
-100 1:-0.939131 2:0.0311907 3:0.194153 4:0.327108 
-100 1:-0.954969 2:-0.25433 3:-0.131376 4:-0.0276974 
-100 1:-0.455993 2:0.965636 3:0.983768 4:0.990839 
100 1:-0.518803 2:0.920011 3:0.960835 4:0.977286 
100 1:-0.615722 2:0.777094 3:0.880746 4:0.928211 
100 1:-0.683439 2:0.528368 3:0.710866 4:0.814515 
100 1:-0.853383 2:-0.145377 3:0.0725172 4:0.266024 
100 1:-0.864187 2:-0.529468 3:-0.381004 4:-0.219278 
100 1:-0.49831 2:0.930465 3:0.965876 4:0.980429 
100 1:-0.563342 2:0.863381 3:0.930729 4:0.959737 
100 1:-0.608379 2:0.73334 3:0.854539 4:0.912068 
100 1:-0.649749 2:0.521406 3:0.708286 4:0.812142 
100 1:-0.687906 2:0.239699 3:0.469845 4:0.626338 
100 1:-0.726149 2:-0.0679621 3:0.156799 4:0.339777 
100 1:-0.834326 2:-0.409148 3:-0.236907 4:-0.0704404 
100 1:-0.219602 2:0.897961 3:0.94691 4:0.969402 
-100 1:-0.219602 2:0.791841 3:0.880232 4:0.926113 
100 1:-0.219602 2:0.62086 3:0.75127 4:0.830395 
100 1:-0.219602 2:0.393229 3:0.551042 4:0.66088 
100 1:-0.219602 2:0.132784 3:0.295508 4:0.418599 
100 1:-0.219602 2:-0.154489 3:-0.0160059 4:0.0892756 
-100 1:-0.465176 2:0.948859 3:0.974494 4:0.984922 
-100 1:-0.522632 2:0.888002 3:0.940733 4:0.96306 
100 1:-0.583151 2:0.723462 3:0.836702 4:0.890852 
-100 1:-0.690497 2:0.451899 3:0.632092 4:0.735578 
-100 1:-0.769624 2:0.162333 3:0.365226 4:0.501768 
-100 1:-0.880082 2:-0.131036 3:0.0458269 4:0.17397 
-100 1:-0.939802 2:-0.381403 3:-0.252883 4:-0.164239 
-100 1:-0.219602 2:0.933985 3:0.967965 4:0.981299 
100 1:-0.219602 2:0.861125 3:0.930049 4:0.958841 
100 1:-0.219602 2:-0.336988 3:-0.118213 4:0.0807534 
-100 1:-0.219602 2:-0.722655 3:-0.59578 4:-0.447838 
-100 1:-0.219602 2:0.926123 3:0.964316 4:0.978921 
-100 1:-0.219602 2:0.828922 3:0.915158 4:0.949965 
100 1:-0.219602 2:0.27363 3:0.513152 4:0.673505 
100 1:-0.219602 2:-0.134745 3:0.108945 4:0.311676 
100 1:-0.219602 2:-0.821771 3:-0.745686 4:-0.658461 
100 1:-0.219602 2:0.929975 3:0.966691 4:0.982376 
-100 1:-0.219602 2:0.850518 3:0.922074 4:0.955452 
-100 1:-0.219602 2:0.71123 3:0.831689 4:0.89631 
100 1:-0.219602 2:0.514105 3:0.680407 4:0.785286 
-100 1:-0.219602 2:0.283873 3:0.468691 4:0.605439 
-100 1:-0.219602 2:0.0452982 3:0.218517 4:0.360001 
-100 1:-0.219602 2:-0.230116 3:-0.0963901 4:0.0144876 
100 1:-0.219602 2:0.927396 3:0.966049 4:0.980707 
100 1:-0.219602 2:0.820445 3:0.907554 4:0.944583 
-100 1:-0.219602 2:0.658476 3:0.799258 4:0.87113 
-100 1:-0.219602 2:0.446221 3:0.628782 4:0.740304 
-100 1:-0.219602 2:0.189161 3:0.385247 4:0.529569 
-100 1:-0.219602 2:-0.0908174 3:0.083796 4:0.229192 
-100 1:-0.219602 2:-0.374685 3:-0.247331 4:-0.138397 
100 1:-0.219602 2:0.916126 3:0.955383 4:0.972696 
-100 1:-0.219602 2:0.831626 3:0.905706 4:0.94032 
-100 1:-0.219602 2:0.675947 3:0.805434 4:0.872663 
-100 1:-0.219602 2:0.422836 3:0.614955 4:0.731417 
-100 1:-0.219602 2:0.0843451 3:0.313949 4:0.479685 
-100 1:-0.219602 2:-0.303494 3:-0.098134 4:0.0856211 
-100 1:-0.219602 2:-0.66335 3:-0.54356 4:-0.416326 
100 1:-0.522356 2:0.967949 3:0.984775 4:0.991246 
-100 1:-0.669555 2:0.815004 3:0.902108 4:0.940634 
-100 1:-0.833959 2:0.605326 3:0.765268 4:0.848563 
-100 1:-0.885129 2:0.309672 3:0.533247 4:0.676604 
-100 1:-0.969275 2:-0.0370408 3:0.205789 4:0.396787 
100 1:-0.996779 2:-0.433171 3:-0.239881 4:-0.0517367 
100 1:-0.698567 2:0.921014 3:0.961266 4:0.977418 
100 1:-0.841142 2:0.811972 3:0.901712 4:0.941679 
100 1:-0.908558 2:0.624997 3:0.774413 4:0.85468 
100 1:-0.918303 2:0.381625 3:0.568887 4:0.687234 
100 1:-0.956659 2:0.0947878 3:0.285782 4:0.421053 
100 1:-0.963037 2:-0.219707 3:-0.0534336 4:0.0746893 
100 1:-0.975253 2:-0.477613 3:-0.361888 4:-0.265615 
-100 1:-0.649823 2:0.930841 3:0.966311 4:0.980987 
-100 1:-0.71013 2:0.863715 3:0.93042 4:0.959554 
-100 1:-0.757878 2:0.73957 3:0.853846 4:0.909758 
-100 1:-0.798101 2:0.559112 3:0.723168 4:0.8168 
-100 1:-0.83167 2:0.329372 3:0.522841 4:0.653018 
100 1:-0.919997 2:-0.294443 3:-0.158886 4:-0.044128 
-100 1:-0.219602 2:0.889127 3:0.943194 4:0.968172 
100 1:-0.219602 2:0.776704 3:0.877523 4:0.928396 
-100 1:-0.219602 2:0.581277 3:0.744002 4:0.840837 
100 1:-0.219602 2:0.299968 3:0.510627 4:0.661012 
100 1:-0.219602 2:-0.0263651 3:0.184241 4:0.35879 
100 1:-0.219602 2:-0.329098 3:-0.163512 4:-0.0150577 
-100 1:-0.478991 2:0.94408 3:0.973194 4:0.984861 
100 1:-0.534359 2:0.871467 3:0.935085 4:0.962388 
-100 1:-0.60951 2:0.732089 3:0.852468 4:0.910908 
-100 1:-0.66136 2:0.493655 3:0.68469 4:0.795906 
-100 1:-0.750784 2:0.189596 3:0.42611 4:0.592675 
-100 1:-0.803292 2:-0.133446 3:0.0982861 4:0.297838 
-100 1:-0.910777 2:-0.469808 3:-0.288565 4:-0.102627 
-100 1:-0.422403 2:0.933222 3:0.967117 4:0.980802 
-100 1:-0.653067 2:0.684991 3:0.816957 4:0.885037 
100 1:-0.767677 2:0.406655 3:0.599806 4:0.72296 
100 1:-0.857049 2:0.0653899 3:0.280027 4:0.449217 
100 1:-0.927933 2:-0.280923 3:-0.0937778 4:0.0831556 
100 1:-0.983164 2:-0.597116 3:-0.474438 4:-0.334863 
-100 1:-0.219602 2:0.937847 3:0.967776 4:0.980431 
-100 1:-0.219602 2:0.861255 3:0.922014 4:0.950011 
-100 1:-0.219602 2:0.702361 3:0.815681 4:0.875521 
100 1:-0.219602 2:0.422713 3:0.594204 4:0.703267 
100 1:-0.219602 2:0.0636114 3:0.253242 4:0.399618 
100 1:-0.219602 2:-0.3065 3:-0.151648 4:-0.0119904 
-100 1:-0.219602 2:-0.62638 3:-0.535976 4:-0.443128 
-100 1:-0.858647 2:0.386847 3:0.600445 4:0.734596 
-100 1:-0.891054 2:0.0501106 3:0.29504 4:0.484324 
100 1:-0.609028 2:0.912442 3:0.956832 4:0.975695 
100 1:-0.708404 2:0.650587 3:0.78437 4:0.860179 
100 1:-0.850795 2:0.419659 3:0.587148 4:0.700923 
100 1:-0.890349 2:0.143699 3:0.315432 4:0.45368 
100 1:-0.934251 2:-0.160856 3:-0.0178511 4:0.116899 
100 1:-0.976247 2:-0.431447 3:-0.337379 4:-0.242852 
-100 1:-0.451247 2:0.972796 3:0.986968 4:0.992328 
-100 1:-0.51693 2:0.939298 3:0.970407 4:0.982778 
-100 1:-0.57741 2:0.846437 3:0.920454 4:0.952362 
-100 1:-0.694541 2:0.653259 3:0.802668 4:0.878425 
-100 1:-0.761084 2:0.376595 3:0.596625 4:0.732308 
-100 1:-0.860996 2:0.0348335 3:0.282909 4:0.472764 
-100 1:-1 2:-0.387836 3:-0.17853 4:0.0217162 
100 1:-0.619532 2:0.913807 3:0.959135 4:0.979067 
100 1:-0.720757 2:0.812179 3:0.903382 4:0.946225 
100 1:-0.793639 2:0.641143 3:0.794181 4:0.875479 
100 1:-0.849736 2:0.388533 3:0.601564 4:0.733821 
100 1:-0.902413 2:0.035592 3:0.280792 4:0.468446 
100 1:-0.946695 2:-0.363046 3:-0.149418 4:0.0496122 
-100 1:-0.97439 2:-0.674691 3:-0.535576 4:-0.389919 
-100 1:-0.495442 2:0.947296 3:0.974501 4:0.985808 
100 1:-0.552105 2:0.886331 3:0.941199 4:0.96567 
100 1:-0.65668 2:0.732137 3:0.846852 4:0.90578 
100 1:-0.769089 2:0.461025 3:0.646864 4:0.762909 
100 1:-0.843382 2:0.169091 3:0.386943 4:0.546351 
100 1:-0.908805 2:-0.131878 3:0.0841853 4:0.265936 
100 1:-0.923917 2:-0.441061 3:-0.267251 4:-0.10086 
100 1:-0.219602 2:0.940789 3:0.96929 4:0.981326 
100 1:-0.219602 2:0.863093 3:0.924131 4:0.952426 
100 1:-0.219602 2:0.701106 3:0.817522 4:0.880479 
100 1:-0.219602 2:0.441325 3:0.611915 4:0.721891 
-100 1:-0.219602 2:0.110346 3:0.300507 4:0.448084 
-100 1:-0.219602 2:-0.243136 3:-0.0816766 4:0.0588556 
100 1:-0.219602 2:-0.574257 3:-0.470573 4:-0.374397 
0.7848882505622546 1:-0.219602 2:1 3:1 4:1 
-100 1:-0.219602 2:0.800571 3:0.897171 4:0.936602 
-100 1:-0.219602 2:0.579181 3:0.755201 4:0.843863 
100 1:-0.219602 2:0.277264 3:0.520146 4:0.673941 
-100 1:-0.219602 2:-0.0188595 3:0.234431 4:0.42766 
-100 1:-0.219602 2:-0.510691 3:-0.343661 4:-0.183791 
-100 1:-0.536088 2:0.924195 3:0.962982 4:0.978451 
100 1:-0.590088 2:0.837606 3:0.916301 4:0.949977 
100 1:-0.673084 2:0.678427 3:0.819775 4:0.888414 
100 1:-0.781717 2:0.416871 3:0.626428 4:0.749272 
100 1:-0.880478 2:0.0736122 3:0.313781 4:0.492564 
100 1:-0.924977 2:-0.296734 3:-0.0907162 4:0.105368 
100 1:-0.565974 2:0.867998 3:0.930326 4:0.958046 
100 1:-0.706257 2:0.678484 3:0.806446 4:0.876485 
100 1:-0.810282 2:0.412276 3:0.593739 4:0.712615 
-100 1:-0.873316 2:0.123876 3:0.31866 4:0.467696 
100 1:-0.923622 2:-0.167027 3:0.00316524 4:0.152033 
100 1:-0.958143 2:-0.45308 3:-0.335456 4:-0.222942 
-100 1:-0.219602 2:0.956363 3:0.978933 4:0.987826 
-100 1:-0.219602 2:0.900915 3:0.950734 4:0.970876 
-100 1:-0.219602 2:0.747249 3:0.864471 4:0.916699 
-100 1:-0.219602 2:-0.405773 3:-0.167564 4:0.0533252 
-100 1:-0.219602 2:-0.763841 3:-0.631275 4:-0.46696 
-100 1:-0.528571 2:0.943091 3:0.973987 4:0.985338 
100 1:-0.682025 2:0.837239 3:0.920362 4:0.953415 
100 1:-0.758747 2:0.666876 3:0.818932 4:0.888994 
100 1:-0.793433 2:0.434644 3:0.652051 4:0.771928 
100 1:-0.819347 2:0.155854 3:0.413007 4:0.585351 
-100 1:-0.921142 2:-0.39552 3:-0.2076 4:-0.0468738 
-100 1:-0.219602 2:0.951093 3:0.97571 4:0.985601 
-100 1:-0.219602 2:0.897088 3:0.948451 4:0.969356 
100 1:-0.219602 2:0.761137 3:0.870161 4:0.921733 
-100 1:-0.219602 2:-0.0414223 3:0.190002 4:0.381409 
-100 1:-0.219602 2:-0.302901 3:-0.114253 4:0.055457 
-100 1:-0.219602 2:0.942194 3:0.972589 4:0.984247 
-100 1:-0.219602 2:0.863001 3:0.933166 4:0.961306 
-100 1:-0.219602 2:0.689491 3:0.832454 4:0.899146 
-100 1:-0.219602 2:0.392613 3:0.617858 4:0.74908 
-100 1:-0.219602 2:-0.00120366 3:0.255825 4:0.45187 
-100 1:-0.219602 2:-0.376147 3:-0.170891 4:0.0246423 
-100 1:-0.219602 2:-0.660815 3:-0.539768 4:-0.408722 
-100 1:-0.449315 2:0.940393 3:0.970292 4:0.98238 
-100 1:-0.534998 2:0.87688 3:0.938057 4:0.963618 
100 1:-0.628716 2:0.733538 3:0.858186 4:0.914166 
100 1:-0.733513 2:0.437963 3:0.662183 4:0.783997 
-100 1:-0.822405 2:-0.0181736 3:0.272077 4:0.481771 
-100 1:-0.966422 2:-0.936464 3:-0.869202 4:-0.756516 
100 1:-0.498049 2:0.918485 3:0.958301 4:0.975473 
-100 1:-0.553433 2:0.819909 3:0.900779 4:0.938894 
-100 1:-0.652187 2:0.64113 3:0.780205 4:0.857399 
100 1:-0.751002 2:0.371935 3:0.561819 4:0.690423 
100 1:-0.847501 2:0.0457181 3:0.245362 4:0.406327 
100 1:-0.916046 2:-0.278861 3:-0.110396 4:0.0476997 
100 1:-0.968053 2:-0.604855 3:-0.510926 4:-0.415534 
-100 1:-0.219602 2:0.898609 3:0.944848 4:0.966888 
-100 1:-0.219602 2:0.773552 3:0.870909 4:0.920054 
-100 1:-0.219602 2:0.541179 3:0.717943 4:0.817309 
-100 1:-0.219602 2:-0.106877 3:0.163339 4:0.354151 
-100 1:-0.219602 2:-0.40644 3:-0.165883 4:0.0254146 
-100 1:-0.219602 2:-0.655138 3:-0.491541 4:-0.341087 
-100 1:-0.219602 2:0.948569 3:0.974756 4:0.985738 
-100 1:-0.219602 2:0.896769 3:0.948059 4:0.969967 
-100 1:-0.219602 2:0.791606 3:0.888532 4:0.933898 
-100 1:-0.219602 2:0.61907 3:0.774941 4:0.860898 
-100 1:-0.219602 2:0.387997 3:0.590993 4:0.724895 
-100 1:-0.219602 2:0.106068 3:0.322454 4:0.496306 
-100 1:-0.219602 2:-0.223734 3:-0.0403004 4:0.130179 
-100 1:-0.219602 2:0.951744 3:0.974305 4:0.984013 
100 1:-0.219602 2:0.893729 3:0.942411 4:0.964162 
100 1:-0.219602 2:0.767271 3:0.867173 4:0.917477 
100 1:-0.219602 2:0.533042 3:0.700774 4:0.803936 
-100 1:-0.219602 2:-0.198639 3:0.0132899 4:0.235397 
100 1:-0.219602 2:-0.596927 3:-0.433253 4:-0.194216 
100 1:-0.474876 2:0.934787 3:0.968762 4:0.982415 
-100 1:-0.540929 2:0.858533 3:0.926801 4:0.957116 
100 1:-0.594461 2:0.716849 3:0.836234 4:0.899095 
100 1:-0.642736 2:0.495218 3:0.663987 4:0.7709 
-100 1:-0.721164 2:0.209007 3:0.399788 4:0.546857 
100 1:-0.788207 2:-0.100987 3:0.0760027 4:0.233419 
100 1:-0.854734 2:-0.398354 3:-0.260391 4:-0.119279 
-100 1:-0.532485 2:0.885337 3:0.940892 4:0.967217 
-100 1:-0.618893 2:0.768781 3:0.869053 4:0.920008 
100 1:-0.781376 2:0.294408 3:0.503559 4:0.647329 
100 1:-0.846756 2:-0.0273654 3:0.194821 4:0.372384 
-100 1:-0.902695 2:-0.35298 3:-0.168818 4:-0.00186988 
-100 1:-0.945138 2:-0.637478 3:-0.529692 4:-0.434323 
-100 1:-0.552048 2:0.885698 3:0.939989 4:0.96746 
100 1:-0.736141 2:0.776562 3:0.866551 4:0.917988 
100 1:-0.97508 2:-0.0185979 3:0.151683 4:0.282701 
-100 1:-0.9471 2:-0.256304 3:-0.102513 4:0.0452901 
-100 1:-0.363942 2:0.950209 3:0.975784 4:0.986152 
100 1:-0.439403 2:0.868721 3:0.933629 4:0.961525 
100 1:-0.516474 2:0.692123 3:0.825868 4:0.893087 
100 1:-0.521967 2:0.42085 3:0.620947 4:0.745567 
100 1:-0.472482 2:0.109344 3:0.336062 4:0.50524 
100 1:-0.118164 2:-0.502796 3:-0.348826 4:-0.190588 
-100 1:-0.485087 2:0.948613 3:0.973754 4:0.984142 
-100 1:-0.409227 2:0.886135 3:0.936999 4:0.960122 
-100 1:-0.639367 2:0.518579 3:0.668034 4:0.760687 
100 1:-0.843704 2:0.175197 3:0.358707 4:0.495356 
100 1:-0.96359 2:-0.188066 3:-0.020065 4:0.121776 
-100 1:-0.982336 2:-0.533832 3:-0.423233 4:-0.314809 
-100 1:-0.434443 2:0.962822 3:0.98126 4:0.988518 
-100 1:-0.505732 2:0.914291 3:0.956081 4:0.973456 
100 1:-0.579038 2:0.793982 3:0.887021 4:0.929134 
-100 1:-0.648169 2:0.579817 3:0.747476 4:0.836257 
100 1:-0.848704 2:-0.106618 3:0.140941 4:0.346905 
-100 1:-0.904584 2:-0.499281 3:-0.307139 4:-0.0982048 
-100 1:-0.219602 2:0.94692 3:0.974194 4:0.984607 
100 1:-0.219602 2:0.885201 3:0.943067 4:0.96567 
-100 1:-0.219602 2:0.439625 3:0.661478 4:0.783357 
-100 1:-0.219602 2:0.0432295 3:0.324046 4:0.524192 
-100 1:-0.219602 2:-0.354068 3:-0.106215 4:0.121494 
-100 1:-0.219602 2:-0.680445 3:-0.523163 4:-0.348231 
-100 1:-0.464099 2:0.918916 3:0.960246 4:0.976928 
100 1:-0.532421 2:0.825126 3:0.907932 4:0.944749 
100 1:-0.605052 2:0.665302 3:0.808176 4:0.879813 
100 1:-0.677974 2:0.406061 3:0.616665 4:0.742071 
100 1:-0.831848 2:-0.356378 3:-0.129075 4:0.0805122 
-100 1:-0.91075 2:-0.718201 3:-0.575406 4:-0.409219 
100 1:-0.258032 2:0.97592 3:0.98903 4:0.99416 
100 1:-0.2886 2:0.943548 3:0.972437 4:0.984317 
100 1:-0.347986 2:0.856172 3:0.921371 4:0.95293 
-100 1:-0.428614 2:0.72085 3:0.828409 4:0.889978 
-100 1:-0.481443 2:0.540139 3:0.68296 4:0.77826 
-100 1:-0.706002 2:0.310688 3:0.475323 4:0.598931 
-100 1:-0.356473 2:-0.00431888 3:0.159725 4:0.30568 
100 1:-0.219602 2:0.904862 3:0.951241 4:0.97197 
100 1:-0.219602 2:0.803255 3:0.887136 4:0.929658 
100 1:-0.219602 2:0.41094 3:0.569327 4:0.677038 
100 1:-0.219602 2:0.134244 3:0.29531 4:0.420061 
100 1:-0.219602 2:-0.157484 3:-0.0272778 4:0.0754154 
100 1:-0.219602 2:-0.426015 3:-0.343337 4:-0.287934 
-100 1:-0.219602 2:0.914282 3:0.955272 4:0.973181 
100 1:-0.219602 2:0.810466 3:0.894142 4:0.934487 
100 1:-0.219602 2:-0.0326021 3:0.161347 4:0.317418 
100 1:-0.219602 2:-0.382736 3:-0.229618 4:-0.0860475 
100 1:-0.219602 2:-0.666911 3:-0.580465 4:-0.487603 
100 1:-0.571666 2:0.916793 3:0.955894 4:0.972742 
-100 1:-0.66388 2:0.833493 3:0.906519 4:0.939949 
100 1:-0.732274 2:0.690213 3:0.811203 4:0.872336 
-100 1:-0.801878 2:0.460251 3:0.637561 4:0.74171 
-100 1:-0.869784 2:0.144058 3:0.358041 4:0.506685 
-100 1:-0.909627 2:-0.217772 3:-0.0215647 4:0.145177 
-100 1:-0.951318 2:-0.603367 3:-0.470082 4:-0.326501 
100 1:-0.703078 2:0.94231 3:0.970983 4:0.983487 
100 1:-0.788209 2:0.886832 3:0.940911 4:0.965436 
100 1:-0.949969 2:0.77787 3:0.875014 4:0.923945 
100 1:-0.939802 2:0.599436 3:0.750321 4:0.838259 
-100 1:-0.923907 2:0.0833492 3:0.277189 4:0.437364 
-100 1:-0.689063 2:0.834086 3:0.909758 4:0.945078 
100 1:-0.820922 2:0.666803 3:0.797049 4:0.869893 
100 1:-0.918367 2:0.41963 3:0.595019 4:0.716116 
100 1:-0.939192 2:0.110355 3:0.297606 4:0.455751 
100 1:-0.958367 2:-0.213047 3:-0.0511829 4:0.11168 
-100 1:-0.99776 2:-0.50034 3:-0.387466 4:-0.253728 
-100 1:-0.559767 2:0.96211 3:0.981301 4:0.988942 
-100 1:-0.582505 2:0.918912 3:0.95726 4:0.973205 
-100 1:-0.70151 2:0.797753 3:0.88129 4:0.921462 
-100 1:-0.78801 2:0.613917 3:0.746864 4:0.821714 
-100 1:-0.844319 2:0.394926 3:0.56151 4:0.669541 
-100 1:-0.895506 2:0.130453 3:0.303451 4:0.433916 
-100 1:-0.972926 2:-0.202013 3:-0.0548757 4:0.072214 
100 1:-0.219602 2:0.929335 3:0.96589 4:0.980064 
-100 1:-0.219602 2:0.695601 3:0.822071 4:0.886294 
-100 1:-0.219602 2:0.207435 3:0.404658 4:0.546051 
-100 1:-0.219602 2:-0.0963707 3:0.090601 4:0.246814 
100 1:-0.497959 2:0.916883 3:0.959101 4:0.979228 
100 1:-0.585962 2:0.834502 3:0.91215 4:0.949787 
100 1:-0.673385 2:0.688874 3:0.820093 4:0.889761 
100 1:-0.76564 2:0.439298 3:0.635942 4:0.758869 
100 1:-0.858592 2:0.0786621 3:0.320171 4:0.50304 
100 1:-0.928658 2:-0.331586 3:-0.11408 4:0.0848025 
100 1:-0.964442 2:-0.6731 3:-0.5281 4:-0.369254 
100 1:-0.219602 2:0.946604 3:0.973959 4:0.984839 
100 1:-0.219602 2:0.887687 3:0.942431 4:0.965947 
-100 1:-0.219602 2:0.552257 3:0.723113 4:0.819451 
-100 1:-0.219602 2:0.247724 3:0.467567 4:0.619864 
-100 1:-0.219602 2:-0.0913824 3:0.128331 4:0.323041 
-100 1:-0.219602 2:-0.419006 3:-0.237004 4:-0.0346653 
-100 1:-0.219602 2:0.955532 3:0.977779 4:0.986827 
-100 1:-0.219602 2:0.897149 3:0.946228 4:0.967799 
-100 1:-0.219602 2:0.776599 3:0.872699 4:0.919845 
100 1:-0.219602 2:0.557753 3:0.718238 4:0.810017 
100 1:-0.219602 2:-0.114763 3:0.105877 4:0.289449 
-100 1:-0.219602 2:-0.491307 3:-0.332602 4:-0.171889 
100 1:-0.219602 2:0.885047 3:0.938285 4:0.961752 
-100 1:-0.219602 2:0.572155 3:0.71901 4:0.805773 
-100 1:-0.219602 2:0.307887 3:0.488733 4:0.615287 
-100 1:-0.219602 2:0.000473769 3:0.182094 4:0.32807 
-100 1:-0.219602 2:-0.387638 3:-0.247347 4:-0.114375 
100 1:-0.219602 2:0.899794 3:0.951798 4:0.973814 
100 1:-0.219602 2:0.589004 3:0.748739 4:0.838627 
100 1:-0.219602 2:0.322049 3:0.525306 4:0.66354 
100 1:-0.219602 2:0.0134183 3:0.222327 4:0.389254 
-100 1:-0.682051 2:0.515677 3:0.693202 4:0.794223 
100 1:-0.584889 2:0.89638 3:0.951745 4:0.973113 
100 1:-0.734809 2:0.738121 3:0.861759 4:0.916948 
100 1:-0.751172 2:0.534726 3:0.72616 4:0.825744 
100 1:-0.771077 2:0.267316 3:0.516082 4:0.670455 
100 1:-0.80037 2:-0.0512472 3:0.199636 4:0.396112 
100 1:-0.936718 2:-0.345149 3:-0.136306 4:0.0612091 
-100 1:-0.890073 2:-0.608663 3:-0.473662 4:-0.329802 
100 1:-0.219602 2:0.942018 3:0.971165 4:0.982376 
100 1:-0.219602 2:0.742804 3:0.850112 4:0.901709 
100 1:-0.219602 2:0.515081 3:0.681055 4:0.776291 
100 1:-0.219602 2:-0.0921826 3:0.0886268 4:0.232622 
54.18741433300775 1:-0.219602 2:1 3:1 4:1 
-100 1:-0.43932 2:0.963675 3:0.982061 4:0.98937 
-100 1:-0.504125 2:0.918576 3:0.957513 4:0.973902 
-100 1:-0.62945 2:0.799894 3:0.88926 4:0.930669 
-100 1:-0.807308 2:0.304264 3:0.515587 4:0.657506 
-100 1:-0.85771 2:-0.0239423 3:0.190014 4:0.363326 
-100 1:-0.90239 2:-0.390666 3:-0.228547 4:-0.0764605 
-100 1:-0.219602 2:0.922306 3:0.958518 4:0.973758 
100 1:-0.219602 2:0.833957 3:0.902633 4:0.934511 
100 1:-0.219602 2:0.620409 3:0.750172 4:0.820591 
100 1:-0.219602 2:0.31326 3:0.49082 4:0.602245 
100 1:-0.219602 2:-0.0181384 3:0.158101 4:0.284694 
100 1:-0.219602 2:-0.336931 3:-0.205492 4:-0.102914 
100 1:-0.219602 2:-0.577968 3:-0.510963 4:-0.471855 
-100 1:-0.607559 2:0.926864 3:0.962418 4:0.976918 
-100 1:-0.732153 2:0.854495 3:0.921687 4:0.949692 
-100 1:-0.907016 2:0.461021 3:0.662416 4:0.774233 
-100 1:-0.943408 2:0.102019 3:0.360296 4:0.538915 
-100 1:-0.960932 2:-0.303802 3:-0.0526366 4:0.164393 
-100 1:-0.970436 2:-0.700719 3:-0.535048 4:-0.343775 
-100 1:-0.219602 2:0.288846 3:0.506165 4:0.654187 
-100 1:-0.219602 2:0.0148825 3:0.233088 4:0.406832 
100 1:-0.651158 2:0.897589 3:0.950066 4:0.971531 
100 1:-0.768991 2:0.772523 3:0.87774 4:0.927624 
100 1:-0.849901 2:0.564489 3:0.73059 4:0.828071 
100 1:-0.890811 2:0.290884 3:0.495676 4:0.643143 
100 1:-0.923363 2:-0.0214801 3:0.177993 4:0.348404 
100 1:-0.943289 2:-0.323696 3:-0.171748 4:-0.0329989 
100 1:-0.965819 2:-0.567382 3:-0.47621 4:-0.39839 
-100 1:-0.219602 2:0.946896 3:0.972096 4:0.982804 
100 1:-0.219602 2:0.881369 3:0.934002 4:0.957932 
-100 1:-0.219602 2:0.735224 3:0.839819 4:0.89437 
100 1:-0.219602 2:0.463265 3:0.634212 4:0.742112 
100 1:-0.219602 2:0.0979975 3:0.296268 4:0.451141 
100 1:-0.219602 2:-0.269864 3:-0.1007 4:0.0490884 
-100 1:-0.219602 2:-0.602934 3:-0.500318 4:-0.400921 
-100 1:-0.219602 2:0.918705 3:0.960716 4:0.976653 
-100 1:-0.219602 2:0.791269 3:0.893282 4:0.936188 
37.45759137133728 1:-0.219602 2:0.539578 3:0.73256 4:0.829586 
100 1:-0.219602 2:0.180321 3:0.454274 4:0.629712 
-100 1:-0.219602 2:-0.748412 3:-0.598581 4:-0.424064 
100 1:-0.567417 2:0.946065 3:0.973869 4:0.98479 
-100 1:-0.631479 2:0.883018 3:0.940241 4:0.964347 
100 1:-0.656474 2:0.761304 3:0.867852 4:0.917754 
100 1:-0.764638 2:0.551144 3:0.719699 4:0.815122 
100 1:-0.794465 2:0.257498 3:0.46888 4:0.613876 
-100 1:-0.857632 2:-0.081276 3:0.129425 4:0.303124 
100 1:-0.913611 2:-0.43704 3:-0.267534 4:-0.100846 
-100 1:-0.479335 2:0.938283 3:0.969806 4:0.982249 
-100 1:-0.61925 2:0.735294 3:0.857509 4:0.914214 
-100 1:-0.716676 2:0.485061 3:0.686254 4:0.797724 
-100 1:-0.764503 2:0.130935 3:0.385915 4:0.560727 
-100 1:-0.841439 2:-0.278113 3:-0.0355756 4:0.176362 
-100 1:-0.962152 2:-0.665781 3:-0.504531 4:-0.329624 
-100 1:-0.613786 2:0.932127 3:0.965804 4:0.980444 
-100 1:-0.674376 2:0.861453 3:0.925168 4:0.954779 
100 1:-0.760003 2:0.726267 3:0.83743 4:0.896225 
100 1:-0.968487 2:-0.0389644 3:0.142026 4:0.289593 
100 1:-0.961524 2:-0.345346 3:-0.210102 4:-0.0904378 
-100 1:-0.41681 2:0.96872 3:0.984752 4:0.99109 
-100 1:-0.677632 2:0.335717 3:0.569375 4:0.709465 
-100 1:-0.793398 2:-0.0510538 3:0.207998 4:0.407779 
-100 1:-0.918398 2:-0.477922 3:-0.29143 4:-0.113381 
100 1:-0.219602 2:1 3:1 4:1 
100 1:-0.219602 2:0.935572 3:0.966334 4:0.9798 
100 1:-0.219602 2:0.887696 3:0.940646 4:0.964159 
100 1:-0.219602 2:0.792149 3:0.885123 4:0.928082 
100 1:-0.219602 2:0.606069 3:0.76709 4:0.849608 
-100 1:-0.219602 2:-0.119536 3:0.135364 4:0.344384 
100 1:-0.617127 2:0.930107 3:0.965327 4:0.980224 
100 1:-0.714543 2:0.86658 3:0.930715 4:0.959589 
100 1:-0.874107 2:0.511403 3:0.700274 4:0.807296 
100 1:-0.919959 2:0.22378 3:0.462264 4:0.625807 
100 1:-0.95025 2:-0.0560773 3:0.186109 4:0.380666 
-100 1:-0.219602 2:0.917949 3:0.959467 4:0.976014 
-100 1:-0.219602 2:0.796825 3:0.892571 4:0.934377 
100 1:-0.219602 2:0.559732 3:0.738292 4:0.829479 
100 1:-0.219602 2:0.172299 3:0.426564 4:0.592356 
100 1:-0.219602 2:-0.318956 3:-0.0670598 4:0.156053 
100 1:-0.219602 2:-0.768429 3:-0.638941 4:-0.472147 
-100 1:-0.219602 2:-0.991885 3:-0.975187 4:-0.940561 
-100 1:-0.75157 2:0.936792 3:0.970197 4:0.983126 
100 1:-0.842063 2:0.873048 3:0.935831 4:0.962193 
100 1:-0.919888 2:0.752851 3:0.864072 4:0.915905 
-100 1:-0.947437 2:0.549254 3:0.723302 4:0.816786 
-100 1:-0.947272 2:0.257028 3:0.480942 4:0.632714 
-100 1:-0.946266 2:-0.0778728 3:0.164705 4:0.362388 
-100 1:-0.97095 2:-0.464958 3:-0.271538 4:-0.0625978 
100 1:-0.219602 2:0.928392 3:0.965862 4:0.980612 
-100 1:-0.219602 2:0.821738 3:0.910673 4:0.948204 
-100 1:-0.219602 2:0.619112 3:0.782704 4:0.866406 
-100 1:-0.219602 2:0.335713 3:0.565413 4:0.710396 
-100 1:-0.219602 2:0.0367748 3:0.284828 4:0.473448 
100 1:-0.219602 2:-0.231862 3:-0.0132092 4:0.175714 
100 1:-0.219602 2:-0.472888 3:-0.311295 4:-0.164812 
-100 1:-0.219602 2:0.93451 3:0.967078 4:0.979744 
100 1:-0.219602 2:0.865171 3:0.926006 4:0.951712 
100 1:-0.219602 2:0.716741 3:0.827612 4:0.882126 
100 1:-0.219602 2:0.125232 3:0.323209 4:0.459893 
100 1:-0.219602 2:-0.212973 3:-0.0328549 4:0.112072 
-100 1:-0.219602 2:-0.564142 3:-0.445267 4:-0.327127 
-100 1:-0.219602 2:0.942341 3:0.970794 4:0.982312 
-100 1:-0.219602 2:0.876611 3:0.93344 4:0.958375 
100 1:-0.219602 2:0.734606 3:0.844355 4:0.89957 
100 1:-0.219602 2:0.468935 3:0.644007 4:0.752705 
100 1:-0.219602 2:0.121886 3:0.32599 4:0.482251 
100 1:-0.219602 2:-0.242955 3:-0.061402 4:0.109765 
100 1:-0.219602 2:-0.580437 3:-0.466954 4:-0.336585 
100 1:-0.560113 2:0.945296 3:0.972328 4:0.982955 
-100 1:-0.693159 2:0.886698 3:0.94037 4:0.962556 
-100 1:-0.794089 2:0.757925 3:0.863533 4:0.911649 
-100 1:-0.882734 2:0.520588 3:0.700168 4:0.796199 
100 1:-0.953213 2:-0.237927 3:0.00115644 4:0.203968 
-100 1:-0.976913 2:-0.661268 3:-0.516167 4:-0.346018 
-100 1:-0.534298 2:0.9149 3:0.957937 4:0.976056 
-100 1:-0.611389 2:0.830288 3:0.907072 4:0.942995 
100 1:-0.681113 2:0.696997 3:0.814552 4:0.876432 
-100 1:-0.736545 2:0.512781 3:0.667622 4:0.761288 
-100 1:-0.796379 2:0.28442 3:0.457306 4:0.576006 
-100 1:-0.845973 2:0.00676137 3:0.17201 4:0.297869 
-100 1:-0.903881 2:-0.291515 3:-0.159101 4:-0.0504698 
-100 1:-0.601926 2:0.947965 3:0.974823 4:0.984641 
-100 1:-0.679152 2:0.885906 3:0.943369 4:0.965862 
-100 1:-0.738944 2:0.749885 3:0.86407 4:0.916548 
-100 1:-0.777534 2:0.514041 3:0.699346 4:0.803493 
-100 1:-0.848475 2:0.227993 3:0.46066 4:0.619691 
-100 1:-0.867267 2:-0.0800537 3:0.152858 4:0.347069 
-100 1:-0.936903 2:-0.41132 3:-0.225011 4:-0.0429099 
-100 1:-0.219602 2:0.951548 3:0.976286 4:0.986149 
-100 1:-0.219602 2:0.895076 3:0.945914 4:0.967502 
100 1:-0.219602 2:0.743143 3:0.852505 4:0.906148 
-100 1:-0.219602 2:0.530136 3:0.695711 4:0.792846 
-100 1:-0.219602 2:0.291176 3:0.485015 4:0.620291 
-100 1:-0.219602 2:0.0303838 3:0.216768 4:0.365918 
-100 1:-0.219602 2:-0.257645 3:-0.108224 4:0.0192044 
-100 1:-0.219602 2:0.946056 3:0.975298 4:0.985857 
-100 1:-0.219602 2:0.849944 3:0.931945 4:0.961657 
-100 1:-0.219602 2:0.651733 3:0.822449 4:0.899192 
-100 1:-0.219602 2:0.354233 3:0.603101 4:0.748546 
-100 1:-0.219602 2:0.052973 3:0.317038 4:0.505491 
-100 1:-0.219602 2:-0.216242 3:0.00915018 4:0.184897 
-100 1:-0.219602 2:-0.494136 3:-0.340575 4:-0.220591 
-100 1:-0.471423 2:0.943172 3:0.971893 4:0.983735 
-100 1:-0.54038 2:0.884211 3:0.940563 4:0.965136 
-100 1:-0.608267 2:0.763065 3:0.867659 4:0.91966 
-100 1:-0.68407 2:0.56476 3:0.725384 4:0.819597 
-100 1:-0.768241 2:0.303534 3:0.501152 4:0.640183 
-100 1:-0.848441 2:0.0145153 3:0.214421 4:0.382081 
-100 1:-0.900037 2:-0.309819 3:-0.148442 4:0.0112644 
-100 1:-0.618555 2:0.892526 3:0.94529 4:0.969193 
-100 1:-0.703425 2:0.791331 3:0.883713 4:0.929288 
100 1:-0.841927 2:0.482785 3:0.666601 4:0.77959 
-100 1:-0.902341 2:0.256682 3:0.473114 4:0.623317 
-100 1:-0.912683 2:-0.0067218 3:0.217911 4:0.390167 
-100 1:-0.943308 2:-0.301483 3:-0.10748 4:0.0734639 
100 1:-0.621562 2:0.942992 3:0.971944 4:0.983521 
100 1:-0.811649 2:0.51325 3:0.717114 4:0.824828 
100 1:-0.891685 2:0.161122 3:0.432535 4:0.615408 
-100 1:-0.955855 2:-0.565232 3:-0.394925 4:-0.212617 
100 1:-0.492645 2:0.904486 3:0.95274 4:0.972296 
100 1:-0.564899 2:0.789776 3:0.886807 4:0.930626 
100 1:-0.639361 2:0.593766 3:0.752567 4:0.839076 
100 1:-0.722221 2:0.309344 3:0.51567 4:0.650204 
100 1:-0.822021 2:-0.0424622 3:0.164397 4:0.32902 
100 1:-0.892398 2:-0.382747 3:-0.222645 4:-0.0764825 
100 1:-0.950364 2:-0.635433 3:-0.535654 4:-0.435351 
-100 1:-0.219602 2:0.91572 3:0.959405 4:0.976104 
-100 1:-0.219602 2:0.798885 3:0.895515 4:0.935778 
-100 1:-0.219602 2:0.615436 3:0.768656 4:0.845756 
-100 1:-0.219602 2:0.384426 3:0.577108 4:0.692253 
-100 1:-0.219602 2:0.10839 3:0.312322 4:0.454842 
100 1:-0.219602 2:-0.20038 3:-0.0197309 4:0.123638 
-100 1:-0.219602 2:-0.502798 3:-0.374731 4:-0.259122 
-100 1:-0.694459 2:0.915298 3:0.959589 4:0.97648 
-100 1:-0.876115 2:0.440052 3:0.6245 4:0.730033 
-100 1:-0.993705 2:0.192938 3:0.39683 4:0.530183 
-100 1:-0.959378 2:-0.082228 3:0.117003 4:0.259697 
-100 1:-0.992716 2:-0.376949 3:-0.215536 4:-0.0872486 
-100 1:-0.482073 2:0.916309 3:0.959573 4:0.977306 
100 1:-0.666896 2:0.47326 3:0.667279 4:0.782143 
-100 1:-0.725235 2:0.208406 3:0.441337 4:0.607868 
100 1:-0.219602 2:1 3:1 4:1 
100 1:-0.219602 2:0.799575 3:0.897162 4:0.940215 
-100 1:-0.219602 2:0.585539 3:0.75614 4:0.849856 
100 1:-0.219602 2:0.266444 3:0.486307 4:0.642778 
100 1:-0.219602 2:-0.141206 3:0.0749292 4:0.273786 
100 1:-0.219602 2:-0.478903 3:-0.321189 4:-0.151105 
100 1:-0.219602 2:-0.65977 3:-0.553192 4:-0.434664 
4.72542833769502 1:-0.219602 2:1 3:1 4:1 
-100 1:-0.219602 2:0.939542 3:0.97149 4:0.983674 
100 1:-0.219602 2:0.869543 3:0.93596 4:0.962758 
100 1:-0.219602 2:0.727444 3:0.854327 4:0.912358 
100 1:-0.219602 2:0.483764 3:0.68484 4:0.797441 
100 1:-0.219602 2:-0.173049 3:0.0601949 4:0.256773 
100 1:-0.219602 2:-0.502541 3:-0.320581 4:-0.138845 
100 1:-0.673637 2:0.924131 3:0.962651 4:0.978548 
-100 1:-0.818544 2:0.837186 3:0.91384 4:0.948182 
-100 1:-0.920207 2:0.462753 3:0.647405 4:0.757885 
-100 1:-0.962965 2:0.167249 3:0.384529 4:0.539653 
-100 1:-0.980506 2:-0.160671 3:0.0461725 4:0.219337 
100 1:-0.890653 2:0.466713 3:0.66512 4:0.776157 
100 1:-0.940604 2:-0.199564 3:0.0366998 4:0.23842 
-100 1:-0.962047 2:-0.539477 3:-0.374844 4:-0.204066 
-100 1:-0.459816 2:0.947984 3:0.974286 4:0.984946 
-100 1:-0.516458 2:0.894118 3:0.94693 4:0.969025 
-100 1:-0.583222 2:0.779793 3:0.884208 4:0.930979 
100 1:-0.678347 2:0.549397 3:0.731975 4:0.831918 
-100 1:-0.770981 2:0.242217 3:0.482534 4:0.64634 
-100 1:-0.940372 2:-0.469799 3:-0.289419 4:-0.103959 
100 1:-0.701858 2:0.911257 3:0.959734 4:0.977944 
100 1:-0.80449 2:0.778621 3:0.887581 4:0.934845 
100 1:-0.893477 2:0.612723 3:0.77706 4:0.86054 
100 1:-0.934492 2:0.422159 3:0.633848 4:0.756969 
-100 1:-0.971484 2:0.204018 3:0.441611 4:0.60044 
100 1:-0.491118 2:0.937474 3:0.968495 4:0.981199 
100 1:-0.756518 2:0.335886 3:0.555721 4:0.695366 
100 1:-0.838346 2:-0.0731549 3:0.163413 4:0.354339 
100 1:-0.890323 2:-0.467154 3:-0.291122 4:-0.114411 
-100 1:-0.959504 2:-0.750916 3:-0.660812 4:-0.555592 
-100 1:-0.516516 2:0.926734 3:0.965949 4:0.980517 
-100 1:-0.623189 2:0.823209 3:0.909238 4:0.945436 
-100 1:-0.730142 2:0.661903 3:0.801055 4:0.869966 
100 1:-0.952575 2:-0.302386 3:-0.183835 4:-0.103609 
-100 1:-0.219602 2:0.943348 3:0.973694 4:0.985377 
100 1:-0.219602 2:0.861547 3:0.931231 4:0.960239 
-100 1:-0.219602 2:0.701033 3:0.833733 4:0.899728 
-100 1:-0.219602 2:0.468205 3:0.656555 4:0.772535 
-100 1:-0.219602 2:-0.0509922 3:0.140167 4:0.302571 
-100 1:-0.549728 2:0.958394 3:0.978836 4:0.98688 
-100 1:-0.664839 2:0.907064 3:0.950259 4:0.96864 
-100 1:-0.848801 2:0.638995 3:0.767898 4:0.841125 
-86.05544535587565 1:-0.927721 2:0.112758 3:0.292322 4:0.433095 
-100 1:-0.959646 2:-0.247583 3:-0.0818655 4:0.0720849 
-100 1:-0.219602 2:0.885381 3:0.943311 4:0.96882 
-100 1:-0.219602 2:0.758842 3:0.865972 4:0.919199 
-100 1:-0.219602 2:0.586287 3:0.744719 4:0.836006 
-100 1:-0.219602 2:0.365287 3:0.560386 4:0.692608 
-100 1:-0.219602 2:0.093937 3:0.296657 4:0.459008 
-100 1:-0.219602 2:-0.192712 3:-0.0188141 4:0.136655 
-100 1:-0.219602 2:-0.487958 3:-0.370534 4:-0.267352 
100 1:-0.714735 2:0.910353 3:0.953821 4:0.973271 
-100 1:-0.796578 2:0.832075 3:0.906519 4:0.941431 
100 1:-0.851954 2:0.722383 3:0.839367 4:0.897333 
-100 1:-0.906857 2:0.54757 3:0.721456 4:0.8166 
-100 1:-0.936537 2:0.298273 3:0.523472 4:0.670357 
-100 1:-0.953348 2:0.00722305 3:0.242466 4:0.423815 
-100 1:-0.962406 2:-0.34665 3:-0.157182 4:0.00762206 
-100 1:-0.52873 2:0.913908 3:0.957041 4:0.976282 
-100 1:-0.694133 2:0.638949 3:0.784621 4:0.86472 
-100 1:-0.771244 2:0.363559 3:0.574978 4:0.713741 
-100 1:-0.833387 2:0.038461 3:0.276298 4:0.460813 
-100 1:-0.882954 2:-0.303116 3:-0.0994955 4:0.0861937 
-100 1:-0.933203 2:-0.6176 3:-0.49232 4:-0.368615 
100 1:-0.219602 2:0.939206 3:0.969974 4:0.981827 
-100 1:-0.219602 2:0.273718 3:0.459642 4:0.586177 
-100 1:-0.219602 2:-0.0343806 3:0.154507 4:0.300978 
-100 1:-0.219602 2:-0.371568 3:-0.215743 4:-0.0713735 
-100 1:-0.219602 2:0.917391 3:0.958032 4:0.974937 
-100 1:-0.219602 2:0.807364 3:0.896457 4:0.936468 
-100 1:-0.219602 2:0.595032 3:0.757553 4:0.844314 
-100 1:-0.219602 2:0.27713 3:0.501656 4:0.650526 
-100 1:-0.406145 2:0.958423 3:0.979513 4:0.987589 
-100 1:-0.474596 2:0.891297 3:0.945011 4:0.966357 
-100 1:-0.539722 2:0.754144 3:0.862902 4:0.913747 
-100 1:-0.63074 2:0.51924 3:0.690769 4:0.792829 
100 1:-0.911744 2:-0.536122 3:-0.418489 4:-0.279071 
-100 1:-0.219602 2:0.942125 3:0.971614 4:0.982773 
-100 1:-0.219602 2:0.880206 3:0.936983 4:0.959952 
100 1:-0.219602 2:0.482838 3:0.661132 4:0.762904 
-100 1:-0.219602 2:0.144752 3:0.362973 4:0.516571 
100 1:-0.219602 2:-0.619517 3:-0.502499 4:-0.3712 
-100 1:-0.412578 2:0.949158 3:0.975434 4:0.985623 
-100 1:-0.560798 2:0.860565 3:0.928554 4:0.956244 
100 1:-0.779039 2:0.409159 3:0.619971 4:0.746427 
100 1:-0.849862 2:0.0540877 3:0.28533 4:0.464497 
100 1:-0.891886 2:-0.278311 3:-0.0854754 4:0.0946185 
100 1:-0.919727 2:-0.573382 3:-0.452897 4:-0.327227 
100 1:-0.219602 2:1 3:1 4:1 
-100 1:-0.219602 2:0.823554 3:0.910056 4:0.946289 
-100 1:-0.219602 2:-0.125465 3:0.0617614 4:0.189718 
100 1:-0.219602 2:-0.376026 3:-0.240687 4:-0.154533 
-100 1:-0.219602 2:0.936361 3:0.966201 4:0.97973 
100 1:-0.219602 2:0.861598 3:0.923364 4:0.953181 
100 1:-0.219602 2:0.712808 3:0.82901 4:0.892095 
100 1:-0.219602 2:0.466708 3:0.653973 4:0.768787 
-100 1:-0.219602 2:0.135347 3:0.381935 4:0.560796 
-100 1:-0.219602 2:-0.226451 3:0.0341335 4:0.26416 
-100 1:-0.219602 2:-0.54635 3:-0.321797 4:-0.0912125 
-100 1:-0.219602 2:0.945608 3:0.972354 4:0.983338 
100 1:-0.219602 2:0.877983 3:0.933002 4:0.957649 
100 1:-0.219602 2:0.739432 3:0.841487 4:0.894497 
100 1:-0.219602 2:0.490937 3:0.649209 4:0.748417 
100 1:-0.219602 2:0.140841 3:0.328589 4:0.470344 
100 1:-0.219602 2:-0.228859 3:-0.0644152 4:0.081321 
100 1:-0.219602 2:-0.560956 3:-0.453233 4:-0.34604 
-100 1:-0.219602 2:0.951627 3:0.975763 4:0.984982 
-100 1:-0.219602 2:0.888835 3:0.941102 4:0.96229 
-100 1:-0.219602 2:0.764393 3:0.865316 4:0.910472 
100 1:-0.219602 2:0.267112 3:0.46008 4:0.578746 
100 1:-0.219602 2:-0.0777827 3:0.107342 4:0.24245 
100 1:-0.219602 2:-0.435897 3:-0.311541 4:-0.211394 
-100 1:-0.911449 2:0.172246 3:0.397915 4:0.55699 
-100 1:-0.937026 2:-0.137968 3:0.0770554 4:0.257923 
-100 1:-0.958179 2:-0.44938 3:-0.281449 4:-0.119379 
46.72393882703511 1:-0.219602 2:1 3:1 4:1 
-100 1:-0.394311 2:0.935198 3:0.966652 4:0.979722 
100 1:-0.44385 2:0.851221 3:0.918759 4:0.949531 
-100 1:-0.539313 2:0.676435 3:0.803948 4:0.871698 
100 1:-0.637281 2:0.405277 3:0.590092 4:0.708988 
100 1:-0.728571 2:0.0705014 3:0.269493 4:0.421742 
100 1:-0.82421 2:-0.273246 3:-0.110152 4:0.030582 
-100 1:-0.887337 2:-0.578188 3:-0.475429 4:-0.376365 
100 1:-0.447456 2:0.913636 3:0.956332 4:0.974058 
100 1:-0.525816 2:0.805542 3:0.893248 4:0.934699 
100 1:-0.613087 2:0.607528 3:0.757219 4:0.841334 
100 1:-0.716983 2:0.320974 3:0.518756 4:0.654689 
100 1:-0.79408 2:-0.00584901 3:0.190919 4:0.351147 
100 1:-0.931149 2:-0.380368 3:-0.22813 4:-0.0841935 
-100 1:-0.219602 2:0.933321 3:0.966972 4:0.980702 
-100 1:-0.219602 2:0.843608 3:0.915605 4:0.947487 
100 1:-0.219602 2:0.702469 3:0.823917 4:0.885288 
-100 1:-0.219602 2:0.495038 3:0.67152 4:0.776642 
-100 1:-0.219602 2:0.23392 3:0.440475 4:0.588372 
-100 1:-0.219602 2:-0.0763449 3:0.121148 4:0.293425 
-100 1:-0.219602 2:-0.416031 3:-0.276224 4:-0.133381 
100 1:-0.499199 2:0.941387 3:0.971872 4:0.983862 
100 1:-0.59005 2:0.876394 3:0.934924 4:0.960088 
100 1:-0.837418 2:0.213487 3:0.41159 4:0.551494 
-100 1:-0.918655 2:-0.0808473 3:0.11141 4:0.269852 
-100 1:-0.9555 2:-0.376373 3:-0.21983 4:-0.0736685 
-100 1:-0.593282 2:0.923575 3:0.962125 4:0.978465 
-100 1:-0.652629 2:0.852127 3:0.920399 4:0.951768 
-100 1:-0.750722 2:0.735149 3:0.842086 4:0.897294 
-100 1:-0.868953 2:0.563229 3:0.710472 4:0.797853 
-100 1:-0.93584 2:0.346347 3:0.520275 4:0.636726 
-100 1:-0.951992 2:0.0785236 3:0.263464 4:0.402215 
-100 1:-0.968922 2:-0.225209 3:-0.062077 4:0.0686229 
-100 1:-0.219602 2:0.916654 3:0.957583 4:0.974526 
-100 1:-0.219602 2:0.822184 3:0.901071 4:0.938561 
-100 1:-0.219602 2:0.657277 3:0.782124 4:0.853082 
100 1:-0.219602 2:0.0913582 3:0.249006 4:0.374979 
25.57275504589142 1:-0.219602 2:-0.254763 3:-0.136202 4:-0.0286768 
100 1:-0.219602 2:-0.52958 3:-0.459476 4:-0.390201 
-100 1:-0.641392 2:0.912567 3:0.95635 4:0.974448 
100 1:-0.775761 2:0.808864 3:0.898869 4:0.938707 
100 1:-0.854082 2:0.61492 3:0.775811 4:0.858301 
100 1:-0.921597 2:0.312365 3:0.541994 4:0.684127 
100 1:-0.972702 2:-0.0622945 3:0.185938 4:0.382113 
-100 1:-0.961634 2:-0.671029 3:-0.559578 4:-0.447302 
100 1:-0.219602 2:0.944845 3:0.97254 4:0.984035 
100 1:-0.219602 2:0.883024 3:0.939639 4:0.964188 
-100 1:-0.219602 2:0.197164 3:0.44168 4:0.607476 
-100 1:-0.219602 2:-0.176757 3:0.0751342 4:0.288248 
-100 1:-0.219602 2:0.917861 3:0.958476 4:0.975057 
-100 1:-0.219602 2:0.803181 3:0.896075 4:0.936928 
100 1:-0.219602 2:0.575692 3:0.748091 4:0.83862 
100 1:-0.219602 2:0.255295 3:0.489205 4:0.639331 
100 1:-0.219602 2:-0.1027 3:0.134811 4:0.316544 
-100 1:-0.219602 2:-0.692499 3:-0.578157 4:-0.481159 
-100 1:-0.219602 2:0.828916 3:0.907118 4:0.942486 
100 1:-0.219602 2:0.667964 3:0.798012 4:0.866762 
-100 1:-0.219602 2:0.430295 3:0.606609 4:0.718545 
100 1:-0.219602 2:-0.171978 3:0.00714368 4:0.163993 
-100 1:-0.219602 2:-0.462848 3:-0.331311 4:-0.196116 
-100 1:-0.508245 2:0.910694 3:0.958492 4:0.977077 
-100 1:-0.597916 2:0.779965 3:0.890009 4:0.937864 
100 1:-0.794876 2:0.160588 3:0.421445 4:0.604477 
100 1:-0.865348 2:-0.226126 3:0.0157295 4:0.23213 
100 1:-0.905772 2:-0.542133 3:-0.375779 4:-0.202051 
-100 1:-0.947856 2:-0.737117 3:-0.638803 4:-0.526253 
-100 1:-0.585656 2:0.484709 3:0.673153 4:0.787014 
-100 1:-0.641359 2:0.217365 3:0.433643 4:0.589927 
-100 1:-0.708975 2:-0.0589902 3:0.147444 4:0.320362 
100 1:-0.588724 2:0.847427 3:0.921938 4:0.956848 
-100 1:-0.70619 2:0.665172 3:0.807991 4:0.88779 
100 1:-0.840278 2:0.378374 3:0.582573 4:0.72737 
100 1:-0.927565 2:0.107396 3:0.327616 4:0.504626 
100 1:-0.953657 2:-0.141527 3:0.0637817 4:0.243897 
100 1:-0.976288 2:-0.391677 3:-0.229904 4:-0.0802222 
100 1:-0.991926 2:-0.604448 3:-0.4956 4:-0.398324 
-100 1:-0.4494 2:0.932054 3:0.965818 4:0.980005 
-100 1:-0.500216 2:0.864355 3:0.928312 4:0.957323 
-100 1:-0.566711 2:0.731715 3:0.843982 4:0.901068 
100 1:-0.645263 2:0.515237 3:0.687076 4:0.789067 
-100 1:-0.722067 2:0.227113 3:0.441316 4:0.594142 
-100 1:-0.808332 2:-0.0879374 3:0.128542 4:0.316797 
100 1:-0.898733 2:-0.42678 3:-0.259854 4:-0.0777079 
100 1:-0.735067 2:0.700739 3:0.817798 4:0.883483 
100 1:-0.785024 2:0.520333 3:0.680317 4:0.780082 
100 1:-0.82258 2:0.281514 3:0.471474 4:0.601862 
-100 1:-0.962923 2:-0.588699 3:-0.4844 4:-0.395366 
-100 1:-0.525373 2:0.935607 3:0.967477 4:0.981223 
-100 1:-0.577449 2:0.881861 3:0.936336 4:0.961126 
100 1:-0.630121 2:0.790309 3:0.878246 4:0.921804 
-100 1:-0.70662 2:0.638722 3:0.771842 4:0.847057 
-100 1:-0.788991 2:0.41655 3:0.586567 4:0.702312 
-100 1:-0.877539 2:0.139698 3:0.319111 4:0.464646 
-100 1:-0.935147 2:-0.183507 3:-0.0391486 4:0.0929301 
-100 1:-0.814244 2:0.929961 3:0.965178 4:0.979881 
-100 1:-0.836685 2:0.748575 3:0.857884 4:0.911352 
-100 1:-0.963284 2:0.55648 3:0.722753 4:0.816864 
-100 1:-0.979888 2:0.29115 3:0.501795 4:0.643806 
-100 1:-0.957948 2:-0.0121388 3:0.204156 4:0.376816 
-100 1:-0.995652 2:-0.351858 3:-0.176295 4:-0.00832128 
-100 1:-0.582751 2:0.913185 3:0.955141 4:0.973766 
-100 1:-0.74391 2:0.42993 3:0.612758 4:0.725599 
-100 1:-0.857769 2:0.110283 3:0.325691 4:0.484831 
100 1:-0.803689 2:-0.22544 3:-0.0221705 4:0.156197 
-100 1:-0.862687 2:-0.547889 3:-0.397169 4:-0.236696 
100 1:-0.219602 2:0.948013 3:0.973941 4:0.98441 
100 1:-0.219602 2:0.888828 3:0.940335 4:0.962775 
100 1:-0.219602 2:0.707253 3:0.824476 4:0.8832 
100 1:-0.219602 2:0.450237 3:0.622546 4:0.729256 
100 1:-0.219602 2:-0.165172 3:-0.00475017 4:0.138027 
100 1:-0.219602 2:-0.486505 3:-0.385895 4:-0.289591 
-100 1:-0.219602 2:0.900775 3:0.949437 4:0.968744 
100 1:-0.219602 2:0.757571 3:0.871934 4:0.921838 
100 1:-0.219602 2:0.457193 3:0.671734 4:0.789177 
100 1:-0.219602 2:-0.0114375 3:0.26213 4:0.465547 
100 1:-0.219602 2:-0.515145 3:-0.308077 4:-0.0965992 
75.70111898909434 1:-0.219602 2:-1 3:-1 4:-1 
100 1:-0.219602 2:0.911945 3:0.958836 4:0.976399 
-100 1:-0.219602 2:0.80944 3:0.903469 4:0.942566 
100 1:-0.219602 2:0.661481 3:0.809496 4:0.878902 
-100 1:-0.219602 2:0.423537 3:0.639402 4:0.758703 
-100 1:-0.219602 2:0.0806363 3:0.344435 4:0.52409 
100 1:-0.219602 2:-0.30267 3:-0.0587228 4:0.153787 
100 1:-0.219602 2:0.933063 3:0.96811 4:0.98136 
100 1:-0.219602 2:0.863139 3:0.928586 4:0.956283 
100 1:-0.219602 2:0.720534 3:0.837587 4:0.896276 
100 1:-0.219602 2:0.485833 3:0.657067 4:0.761084 
100 1:-0.219602 2:0.186508 3:0.386685 4:0.531523 
100 1:-0.219602 2:-0.16075 3:0.0259232 4:0.188125 
100 1:-0.219602 2:-0.485846 3:-0.34817 4:-0.214233 
100 1:-0.219602 2:0.677796 3:0.810853 4:0.87965 
100 1:-0.219602 2:0.406228 3:0.59906 4:0.721742 
100 1:-0.219602 2:0.0581548 3:0.271847 4:0.437434 
100 1:-0.219602 2:-0.302421 3:-0.124419 4:0.0382418 
100 1:-0.219602 2:-0.628236 3:-0.520021 4:-0.408362 
100 1:-0.573087 2:0.925292 3:0.962653 4:0.978594 
-100 1:-0.692676 2:0.845277 3:0.917075 4:0.950423 
-100 1:-0.795365 2:0.703381 3:0.824612 4:0.888236 
100 1:-0.868942 2:0.493028 3:0.663494 4:0.769457 
100 1:-0.893594 2:0.243006 3:0.433855 4:0.57287 
100 1:-0.921595 2:-0.0247184 3:0.156281 4:0.305181 
100 1:-0.968094 2:-0.308909 3:-0.167309 4:-0.0383783 
-100 1:-0.25678 2:0.946072 3:0.974178 4:0.98557 
100 1:-0.258603 2:0.88745 3:0.943634 4:0.967984 
100 1:-0.288588 2:0.767431 3:0.873091 4:0.924099 
100 1:-0.377587 2:0.556104 3:0.726854 4:0.825181 
100 1:-0.549905 2:0.263445 3:0.481879 4:0.637045 
-100 1:-0.712198 2:-0.0616811 3:0.158829 4:0.34738 
100 1:-0.725703 2:-0.399086 3:-0.22309 4:-0.0445227 
100 1:-0.597146 2:0.927262 3:0.961275 4:0.975685 
100 1:-0.698982 2:0.865819 3:0.927351 4:0.953902 
-100 1:-0.857728 2:0.493195 3:0.697187 4:0.8041 
-100 1:-0.912297 2:0.0962036 3:0.37911 4:0.572743 
-100 1:-0.948357 2:-0.31089 3:-0.0602248 4:0.164505 
-100 1:-0.49217 2:0.975113 3:0.98824 4:0.993322 
-100 1:-0.617908 2:0.93688 3:0.969294 4:0.982095 
-100 1:-0.697429 2:0.846396 3:0.922306 4:0.954889 
-100 1:-0.78286 2:0.653144 3:0.806172 4:0.882411 
-100 1:-0.826771 2:0.323107 3:0.562754 4:0.713829 
-100 1:-0.853774 2:-0.107941 3:0.156276 4:0.379143 
100 1:-0.915364 2:-0.56414 3:-0.378525 4:-0.174391 
-100 1:-0.480695 2:0.942818 3:0.971329 4:0.983433 
-100 1:-0.537994 2:0.891502 3:0.944044 4:0.966812 
-100 1:-0.584787 2:0.785452 3:0.882361 4:0.927704 
-100 1:-0.632092 2:0.600219 3:0.759188 4:0.845676 
-100 1:-0.681632 2:0.345516 3:0.554917 4:0.694633 
-100 1:-0.747726 2:0.0543295 3:0.270197 4:0.44316 
-100 1:-0.219602 2:0.919567 3:0.960089 4:0.977181 
100 1:-0.219602 2:0.811374 3:0.900597 4:0.94195 
-100 1:-0.219602 2:0.605851 3:0.766065 4:0.854286 
100 1:-0.219602 2:0.294544 3:0.512755 4:0.664532 
100 1:-0.219602 2:-0.0735946 3:0.145889 4:0.333552 
-100 1:-0.219602 2:-0.676666 3:-0.558119 4:-0.41877 
100 1:-0.532814 2:0.966502 3:0.984006 4:0.990688 
100 1:-0.629036 2:0.926004 3:0.961701 4:0.976524 
100 1:-0.725163 2:0.823101 3:0.900981 4:0.936222 
-100 1:-0.80233 2:0.426958 3:0.605812 4:0.714786 
-100 1:-0.971094 2:0.132458 3:0.337292 4:0.482475 
-100 1:-0.219602 2:0.929678 3:0.96735 4:0.981499 
100 1:-0.219602 2:0.83091 3:0.914872 4:0.950533 
100 1:-0.219602 2:0.668399 3:0.808185 4:0.879446 
-100 1:-0.219602 2:-0.116898 3:0.0551637 4:0.193292 
100 1:-0.219602 2:-0.404901 3:-0.285326 4:-0.188427 
100 1:-0.219602 2:0.846156 3:0.916248 4:0.950265 
100 1:-0.219602 2:0.724731 3:0.831551 4:0.891673 
-100 1:-0.219602 2:0.568473 3:0.705363 4:0.79165 
100 1:-0.219602 2:0.381854 3:0.535382 4:0.642145 
100 1:-0.219602 2:0.147254 3:0.300746 4:0.414626 
100 1:-0.219602 2:-0.146379 3:-0.0205326 4:0.0757881 
100 1:-0.219602 2:0.936906 3:0.968507 4:0.981808 
100 1:-0.219602 2:0.874584 3:0.934412 4:0.960549 
100 1:-0.219602 2:0.739357 3:0.851434 4:0.906615 
100 1:-0.219602 2:0.514034 3:0.692181 4:0.794047 
-100 1:-0.219602 2:0.20545 3:0.433177 4:0.592726 
-100 1:-0.219602 2:-0.155043 3:0.0739086 4:0.270899 
15.99471580777142 1:-0.219602 2:1 3:1 4:1 
-100 1:-0.219602 2:0.954257 3:0.974068 4:0.982039 
100 1:-0.219602 2:0.897272 3:0.93857 4:0.955939 
-100 1:-0.219602 2:0.581543 3:0.706971 4:0.771967 
-100 1:-0.219602 2:0.285676 3:0.435843 4:0.525047 
100 1:-0.219602 2:-0.0827336 3:0.0522403 4:0.148676 
100 1:-0.219602 2:-0.536087 3:-0.470921 4:-0.394216 
-100 1:-0.219602 2:0.915317 3:0.956182 4:0.973522 
100 1:-0.219602 2:0.827188 3:0.907591 4:0.94298 
100 1:-0.219602 2:0.654094 3:0.801018 4:0.874066 
100 1:-0.219602 2:0.387221 3:0.609551 4:0.73664 
-100 1:-0.219602 2:0.0341454 3:0.30777 4:0.496976 
-100 1:-0.219602 2:-0.360608 3:-0.106501 4:0.120371 
100 1:-0.219602 2:-0.740566 3:-0.596604 4:-0.428488 
18.27412137234265 1:-0.219602 2:1 3:1 4:1 
-100 1:-0.621949 2:0.924738 3:0.962402 4:0.978197 
100 1:-0.776873 2:0.720828 3:0.842367 4:0.90089 
-100 1:-0.900941 2:0.220808 3:0.44356 4:0.596529 
-100 1:-0.908674 2:-0.0888849 3:0.132565 4:0.313223 
-100 1:-0.957634 2:-0.410568 3:-0.231189 4:-0.0598594 
-100 1:-0.509535 2:0.916874 3:0.957707 4:0.975089 
100 1:-0.672582 2:0.637452 3:0.776378 4:0.853779 
100 1:-0.776393 2:0.364933 3:0.550817 4:0.677111 
100 1:-0.837226 2:0.02108 3:0.219111 4:0.378439 
-100 1:-0.219602 2:0.905207 3:0.952194 4:0.973183 
-100 1:-0.219602 2:0.78674 3:0.881566 4:0.928681 
-100 1:-0.219602 2:0.580549 3:0.735242 4:0.827274 
-100 1:-0.219602 2:-0.275646 3:-0.11214 4:0.0286768 
-100 1:-0.219602 2:-0.498559 3:-0.388475 4:-0.299536 
100 1:-0.558652 2:0.916749 3:0.959442 4:0.976816 
100 1:-0.659964 2:0.800597 3:0.893693 4:0.935242 
100 1:-0.747569 2:0.598279 3:0.75896 4:0.843349 
100 1:-0.835235 2:0.33411 3:0.543857 4:0.679325 
100 1:-0.883959 2:0.0445771 3:0.25268 4:0.415018 
100 1:-0.907068 2:-0.225385 3:-0.054908 4:0.0882816 
100 1:-0.950645 2:-0.455872 3:-0.33831 4:-0.247289 
100 1:-0.545904 2:0.944267 3:0.971748 4:0.982924 
-100 1:-0.608743 2:0.865188 3:0.928448 4:0.956044 
-100 1:-0.723354 2:0.699901 3:0.826536 4:0.889586 
100 1:-0.744256 2:0.416585 3:0.616066 4:0.738338 
100 1:-0.846153 2:0.0442583 3:0.27418 4:0.451431 
-100 1:-0.916352 2:-0.354828 3:-0.165993 4:0.0155791 
100 1:-0.953516 2:-0.699615 3:-0.594319 4:-0.471714 
-100 1:-0.219602 2:0.905053 3:0.950777 4:0.970718 
-100 1:-0.219602 2:0.81886 3:0.897862 4:0.935471 
-100 1:-0.219602 2:0.671963 3:0.795565 4:0.863531 
-100 1:-0.219602 2:0.452502 3:0.61432 4:0.721701 
100 1:-0.219602 2:-0.413708 3:-0.313034 4:-0.231323 
-100 1:-0.219602 2:0.955714 3:0.977254 4:0.986527 
-100 1:-0.219602 2:0.530167 3:0.694923 4:0.791063 
-100 1:-0.219602 2:0.216385 3:0.430724 4:0.578415 
-100 1:-0.219602 2:-0.133883 3:0.0873505 4:0.270149 
-100 1:-0.219602 2:-0.500389 3:-0.326584 4:-0.137761 
100 1:-0.75328 2:0.93298 3:0.967509 4:0.981562 
-100 1:-0.970904 2:0.547774 3:0.723749 4:0.819997 
-100 1:-0.974556 2:0.272023 3:0.496049 4:0.645629 
-100 1:-0.975016 2:-0.0454389 3:0.183114 4:0.363969 
-100 1:-0.982926 2:-0.401066 3:-0.224066 4:-0.0542364 
100 1:-0.219602 2:0.926769 3:0.963339 4:0.978682 
-100 1:-0.219602 2:0.689527 3:0.815787 4:0.882715 
-100 1:-0.219602 2:0.468197 3:0.643938 4:0.753519 
-100 1:-0.219602 2:0.186022 3:0.388668 4:0.538722 
-100 1:-0.219602 2:-0.136941 3:0.0548227 4:0.224862 
-100 1:-0.219602 2:-0.472299 3:-0.31734 4:-0.149541 
-100 1:-0.219602 2:0.881358 3:0.940079 4:0.966089 
100 1:-0.219602 2:0.748944 3:0.858463 4:0.914334 
100 1:-0.219602 2:0.574606 3:0.732968 4:0.822479 
-100 1:-0.219602 2:0.141087 3:0.364341 4:0.523252 
-100 1:-0.219602 2:-0.13283 3:0.0731738 4:0.247106 
-100 1:-0.219602 2:-0.433791 3:-0.278958 4:-0.118387 
-100 1:-0.219602 2:0.951319 3:0.976224 4:0.986244 
-100 1:-0.219602 2:0.896006 3:0.94775 4:0.969341 
-100 1:-0.219602 2:0.763439 3:0.870515 4:0.921385 
100 1:-0.219602 2:0.520214 3:0.70487 4:0.812127 
100 1:-0.219602 2:0.221982 3:0.456852 4:0.623093 
-100 1:-0.219602 2:-0.0497149 3:0.185462 4:0.37934 
-100 1:-0.219602 2:-0.306324 3:-0.119563 4:0.0463841 
-100 1:-0.421068 2:0.956943 3:0.978343 4:0.986883 
-100 1:-0.483079 2:0.9042 3:0.950013 4:0.968491 
-100 1:-0.56505 2:0.743367 3:0.853963 4:0.904087 
100 1:-0.681635 2:0.463483 3:0.653634 4:0.757907 
100 1:-0.754187 2:0.0999234 3:0.337849 4:0.499351 
100 1:-0.795651 2:-0.289033 3:-0.0659679 4:0.12977 
100 1:-0.884872 2:-0.645137 3:-0.501258 4:-0.338612 
-100 1:-0.219602 2:0.938305 3:0.968258 4:0.980641 
-100 1:-0.219602 2:0.857995 3:0.919517 4:0.947724 
100 1:-0.219602 2:0.451424 3:0.609685 4:0.704534 
100 1:-0.219602 2:0.14362 3:0.322429 4:0.449721 
100 1:-0.219602 2:-0.180882 3:-0.021074 4:0.104934 
-100 1:-0.219602 2:-0.467854 3:-0.348232 4:-0.24314 
100 1:-0.4024 2:0.943407 3:0.969527 4:0.980889 
100 1:-0.482754 2:0.872478 3:0.9279 4:0.952964 
100 1:-0.592444 2:0.721796 3:0.827354 4:0.882654 
-100 1:-0.651977 2:0.0942953 3:0.283391 4:0.428284 
-100 1:-0.795714 2:-0.28083 3:-0.125246 4:0.00981963 
-100 1:-0.835246 2:-0.632103 3:-0.541054 4:-0.457775 
-100 1:-0.219602 2:0.92591 3:0.963254 4:0.97894 
-100 1:-0.219602 2:0.855244 3:0.922901 4:0.953432 
-100 1:-0.219602 2:0.557507 3:0.717068 4:0.811482 
-100 1:-0.219602 2:0.304712 3:0.500765 4:0.638005 
-100 1:-0.219602 2:0.0207282 3:0.220675 4:0.385295 
-100 1:-0.219602 2:-0.267294 3:-0.0944113 4:0.0660599 
100 1:-0.429777 2:0.961947 3:0.981907 4:0.989346 
100 1:-0.582525 2:0.903582 3:0.951098 4:0.970162 
100 1:-0.67788 2:0.788662 3:0.882642 4:0.925809 
-100 1:-0.902933 2:0.0308433 3:0.229111 4:0.390097 
-100 1:-0.955949 2:-0.270808 3:-0.105577 4:0.0455484 
-100 1:-0.219602 2:0.902459 3:0.954484 4:0.975276 
-100 1:-0.219602 2:0.750833 3:0.86861 4:0.922157 
100 1:-0.219602 2:0.528848 3:0.714935 4:0.814997 
-100 1:-0.219602 2:0.276055 3:0.500647 4:0.6476 
-100 1:-0.219602 2:0.00846298 3:0.233931 4:0.406006 
-100 1:-0.219602 2:-0.27772 3:-0.0858647 4:0.0817644 
-100 1:-0.219602 2:-0.535533 3:-0.401414 4:-0.27853 
-100 1:-0.489928 2:0.947523 3:0.974286 4:0.984958 
-100 1:-0.534298 2:0.890985 3:0.94298 4:0.965195 
100 1:-0.639484 2:0.756388 3:0.861847 4:0.911805 
-100 1:-0.812694 2:0.0945152 3:0.326683 4:0.492583 
-100 1:-0.868302 2:-0.270994 3:-0.062259 4:0.121494 
-100 1:-0.906046 2:-0.584565 3:-0.442664 4:-0.293048 
-100 1:-0.66546 2:0.852995 3:0.925711 4:0.958992 
-100 1:-0.792583 2:0.67669 3:0.817874 4:0.893905 
100 1:-0.932112 2:0.112433 3:0.337177 4:0.518637 
100 1:-0.940172 2:-0.140558 3:0.0679882 4:0.255843 
100 1:-0.95224 2:-0.39306 3:-0.2311 4:-0.0754787 
100 1:-0.444079 2:0.962088 3:0.98008 4:0.987723 
100 1:-0.46824 2:0.916691 3:0.954919 4:0.971765 
100 1:-0.543931 2:0.76316 3:0.863051 4:0.910918 
100 1:-0.903583 2:-0.771228 3:-0.667454 4:-0.528634 
100 1:-0.219602 2:0.788548 3:0.889581 4:0.933647 
100 1:-0.219602 2:0.601986 3:0.763238 4:0.846458 
100 1:-0.219602 2:0.354666 3:0.561259 4:0.688077 
100 1:-0.219602 2:0.0673158 3:0.283741 4:0.438755 
100 1:-0.219602 2:-0.525713 3:-0.404941 4:-0.297864 
-100 1:-0.652447 2:0.911226 3:0.955735 4:0.974694 
-100 1:-0.762135 2:0.817607 3:0.899088 4:0.9387 
100 1:-0.89811 2:0.436756 3:0.601313 4:0.710391 
100 1:-0.912914 2:0.14402 3:0.318337 4:0.455188 
100 1:-0.92256 2:-0.187323 3:-0.0390818 4:0.0983169 
-100 1:-0.519816 2:0.956651 3:0.978928 4:0.987161 
100 1:-0.576139 2:0.894905 3:0.94825 4:0.969151 
100 1:-0.64713 2:0.749325 3:0.867848 4:0.919808 
100 1:-0.695181 2:0.478048 3:0.686871 4:0.797865 
100 1:-0.756012 2:0.0920991 3:0.367136 4:0.556344 
100 1:-0.836388 2:-0.349761 3:-0.104531 4:0.123555 
100 1:-0.942713 2:-0.737748 3:-0.609171 4:-0.455181 
-100 1:-0.219602 2:0.925246 3:0.963001 4:0.977898 
-100 1:-0.219602 2:0.844964 3:0.916759 4:0.948306 
100 1:-0.219602 2:0.519854 3:0.687196 4:0.782582 
-100 1:-0.219602 2:-0.0371881 3:0.167292 4:0.332504 
-100 1:-0.219602 2:0.936636 3:0.969511 4:0.981615 
100 1:-0.219602 2:0.858553 3:0.92584 4:0.952928 
-100 1:-0.219602 2:0.738755 3:0.850695 4:0.902873 
-100 1:-0.219602 2:0.303233 3:0.493015 4:0.618987 
-100 1:-0.219602 2:0.0195037 3:0.206089 4:0.352107 
-100 1:-0.219602 2:-0.290462 3:-0.141323 4:-0.00898884 
-100 1:-0.610469 2:0.954184 3:0.976417 4:0.985426 
-100 1:-0.693158 2:0.90001 3:0.945841 4:0.964771 
100 1:-0.835609 2:0.765277 3:0.861379 4:0.906784 
-100 1:-0.822763 2:0.534408 3:0.69053 4:0.78142 
-100 1:-0.939349 2:0.237932 3:0.427197 4:0.558963 
-100 1:-0.98893 2:-0.0793172 3:0.102886 4:0.248653 
100 1:-0.996529 2:-0.438172 3:-0.307293 4:-0.189163 
-100 1:-0.514837 2:0.916186 3:0.958914 4:0.977011 
-100 1:-0.614792 2:0.816734 3:0.902055 4:0.941762 
-100 1:-0.69285 2:0.654674 3:0.791135 4:0.865444 
100 1:-0.963555 2:-0.414015 3:-0.30417 4:-0.206149 
-100 1:-0.595171 2:0.94581 3:0.974372 4:0.985665 
100 1:-0.682514 2:0.889358 3:0.944899 4:0.968454 
-100 1:-0.73312 2:0.722424 3:0.842346 4:0.904447 
-100 1:-0.783206 2:0.491067 3:0.662812 4:0.772598 
100 1:-0.877759 2:0.26292 3:0.448859 4:0.585843 
100 1:-0.96017 2:0.0336354 3:0.209316 4:0.34903 
100 1:-0.904516 2:-0.249735 3:-0.115241 4:-0.00827012 
-100 1:-0.675319 2:0.910817 3:0.954046 4:0.974657 
-100 1:-0.770078 2:0.820823 3:0.898655 4:0.939603 
100 1:-0.845295 2:0.687429 3:0.805605 4:0.87384 
-100 1:-0.903389 2:0.515573 3:0.675629 4:0.778063 
-100 1:-0.954608 2:0.290326 3:0.481202 4:0.617932 
-100 1:-0.967237 2:0.0460039 3:0.24189 4:0.400051 
-100 1:-0.96857 2:-0.260937 3:-0.0985556 4:0.0593185 
-100 1:-0.219602 2:0.743679 3:0.860619 4:0.916724 
100 1:-0.219602 2:0.481677 3:0.674865 4:0.791323 
100 1:-0.219602 2:0.136866 3:0.374876 4:0.549506 
100 1:-0.219602 2:-0.200052 3:0.0259946 4:0.223715 
100 1:-0.219602 2:-0.477654 3:-0.300463 4:-0.126929 
-100 1:-0.219602 2:-0.68325 3:-0.563717 4:-0.436226 
-100 1:-0.309322 2:0.93788 3:0.965781 4:0.978144 
100 1:-0.378871 2:0.862244 3:0.919738 4:0.946501 
-100 1:-0.472173 2:0.699048 3:0.808501 4:0.867907 
100 1:-0.560275 2:0.40833 3:0.575998 4:0.685706 
100 1:-0.705622 2:0.0314787 3:0.213064 4:0.356149 
100 1:-0.763116 2:-0.346094 3:-0.205204 4:-0.081974 
-100 1:-0.773308 2:-0.674927 3:-0.595883 4:-0.521673 
-100 1:-0.219602 2:0.926215 3:0.962814 4:0.978022 
-100 1:-0.219602 2:0.854904 3:0.923739 4:0.953603 
-100 1:-0.219602 2:0.525924 3:0.704052 4:0.804943 
-100 1:-0.219602 2:0.249797 3:0.472771 4:0.623836 
-100 1:-0.219602 2:-0.0624242 3:0.163028 4:0.3493 
-100 1:-0.219602 2:-0.400554 3:-0.222422 4:-0.0479116 
100 1:-0.219602 2:0.797955 3:0.895948 4:0.939426 
100 1:-0.219602 2:0.584172 3:0.762452 4:0.854466 
100 1:-0.219602 2:0.24221 3:0.500235 4:0.664973 
100 1:-0.219602 2:-0.206678 3:0.0632956 4:0.290855 
100 1:-0.219602 2:-0.631516 3:-0.459308 4:-0.266207 
100 1:-0.219602 2:-0.875453 3:-0.805639 4:-0.709224 
-100 1:-0.591562 2:0.93103 3:0.967753 4:0.98154 
100 1:-0.722143 2:0.829749 3:0.916266 4:0.951673 
100 1:-0.799386 2:0.638762 3:0.792914 4:0.870943 
100 1:-0.854219 2:0.413578 3:0.608798 4:0.727594 
100 1:-0.895905 2:0.163129 3:0.365959 4:0.509313 
100 1:-0.219602 2:0.909804 3:0.954484 4:0.973551 
100 1:-0.219602 2:0.797803 3:0.891822 4:0.93389 
100 1:-0.219602 2:0.592847 3:0.762231 4:0.851272 
100 1:-0.219602 2:0.264878 3:0.503421 4:0.656665 
100 1:-0.219602 2:-0.118791 3:0.143834 4:0.356215 
100 1:-0.219602 2:-0.522633 3:-0.320645 4:-0.110233 
100 1:-0.219602 2:-0.814384 3:-0.711634 4:-0.57728 
-100 1:-0.671847 2:0.81334 3:0.901896 4:0.94262 
-100 1:-0.795426 2:0.630913 3:0.780693 4:0.863142 
100 1:-0.86285 2:0.386163 3:0.583103 4:0.713524 
100 1:-0.897749 2:0.118617 3:0.327199 4:0.492978 
-100 1:-0.928665 2:-0.176212 3:0.0100786 4:0.181907 
-100 1:-0.960762 2:-0.459671 3:-0.325027 4:-0.180714 
100 1:-0.219602 2:0.888971 3:0.946617 4:0.96748 
100 1:-0.219602 2:0.746895 3:0.866931 4:0.920218 
-100 1:-0.219602 2:0.520118 3:0.709758 4:0.814929 
-100 1:-0.5294 2:0.906097 3:0.953595 4:0.972455 
100 1:-0.695283 2:0.55814 3:0.723493 4:0.81775 
100 1:-0.747898 2:0.270757 3:0.470124 4:0.613864 
100 1:-0.814293 2:-0.0540503 3:0.127153 4:0.281648 
100 1:-0.894408 2:-0.369541 3:-0.24247 4:-0.131877 
-100 1:-0.962985 2:-0.628963 3:-0.568103 4:-0.528733 
-100 1:-0.947325 2:0.949952 3:0.97483 4:0.985039 
-100 1:-0.951771 2:0.899537 3:0.947211 4:0.967741 
-100 1:-0.988701 2:0.79611 3:0.883649 4:0.926472 
-100 1:-0.999997 2:0.617283 3:0.7582 4:0.839054 
-100 1:-1 2:0.364458 3:0.548971 4:0.674316 
-100 1:-1 2:0.0382082 3:0.231816 4:0.393393 
100 1:-0.989192 2:-0.374384 3:-0.232203 4:-0.0890052 
100 1:-0.219602 2:0.979117 3:0.990011 4:0.994099 
-100 1:-0.219602 2:0.675892 3:0.810514 4:0.87964 
-100 1:-0.219602 2:0.391345 3:0.58771 4:0.715442 
-100 1:-0.219602 2:0.0398812 3:0.248455 4:0.422107 
-100 1:-0.219602 2:0.94831 3:0.974024 4:0.983803 
-100 1:-0.219602 2:0.886238 3:0.942726 4:0.965158 
-100 1:-0.219602 2:0.747498 3:0.863971 4:0.916081 
100 1:-0.219602 2:0.501325 3:0.696775 4:0.801602 
100 1:-0.219602 2:0.161731 3:0.420507 4:0.590935 
-100 1:-0.219602 2:-0.705149 3:-0.557534 4:-0.389495 
100 1:-0.42303 2:0.931837 3:0.965162 4:0.978741 
100 1:-0.533665 2:0.848737 3:0.916045 4:0.946588 
100 1:-0.61304 2:0.69362 3:0.811746 4:0.87365 
100 1:-0.673877 2:0.447025 3:0.616715 4:0.722821 
100 1:-0.729942 2:0.144183 3:0.335011 4:0.476937 
100 1:-0.795748 2:-0.185793 3:-0.0171439 4:0.12812 
100 1:-0.845825 2:-0.479475 3:-0.362473 4:-0.253082 
-100 1:-0.44164 2:0.964583 3:0.982522 4:0.989945 
-100 1:-0.474848 2:0.92124 3:0.958041 4:0.9731 
-100 1:-0.552818 2:0.785289 3:0.874422 4:0.914185 
-100 1:-0.626712 2:0.549471 3:0.710373 4:0.7928 
-100 1:-0.711853 2:0.258617 3:0.471064 4:0.59869 
-100 1:-0.832409 2:-0.0578075 3:0.164166 4:0.319765 
